{{[[ 5.34259081e-02  1.76587090e-01  2.77937084e-01  5.86900264e-02
   1.94518298e-01 -4.45843786e-02  4.50804710e-01 -1.00949690e-01
  -1.88452870e-01  1.78554192e-01  9.33850333e-02 -1.34533137e-01]
 [ 3.76647353e-01 -7.99513012e-02  7.89575279e-02  2.40802206e-02
   2.74905682e-01  4.04406905e-01  2.28985861e-01 -1.57153666e-01
   4.21820402e-01 -5.27908802e-02  1.26915634e-01 -4.49411422e-02]
 [-2.71245092e-02 -5.20385653e-02 -5.82857132e-02 -1.44277513e-01
   6.92833960e-02  1.60649344e-01 -1.23403601e-01 -7.43828565e-02
   1.36840895e-01  6.23860508e-02 -2.62856185e-02  1.86174765e-01]
 [ 3.88726369e-02 -1.32464066e-01 -1.58604503e-01  9.06131342e-02
  -7.04123974e-02  2.60223031e-01 -2.84331322e-01  7.17785733e-04
   2.70518005e-01  1.48191825e-01  1.05219193e-01  3.92016768e-02]
 [-7.75705278e-03 -1.02431595e-01  2.51531601e-04 -1.56010658e-01
   7.70609528e-02  9.07574445e-02 -1.53383449e-01  1.16212472e-01
  -1.62354663e-01 -4.19124514e-02  2.66600698e-02  1.15381345e-01]
 [ 7.59497732e-02 -1.24728441e-01  3.91310811e-01 -1.32820889e-01
   1.00659207e-01  2.39502564e-01  3.51052552e-01  1.62438676e-01
   2.24853709e-01  1.93195909e-01  1.93004444e-01  1.79157898e-01]], [[-0.01754742  0.18534206  0.32332367  0.16202946 -0.06557982  0.16185409
   0.20881143 -0.08284049  0.07522573 -0.0875481  -0.18840227  0.08045323]
 [ 0.37654066 -0.05746095 -0.01991643 -0.0166029   0.36417556  0.3855688
   0.05410736 -0.13664018  0.13364033 -0.14119643  0.11187297 -0.13142851]
 [ 0.13846494  0.16187356  0.06295054 -0.03071573 -0.07328849 -0.04855897
  -0.14155649 -0.056411   -0.09795741 -0.17860556 -0.17278807 -0.05380894]
 [-0.03996149 -0.1285061  -0.07631301 -0.0882787   0.19173013  0.17341487
  -0.00729763 -0.00843947  0.01975909  0.14216934 -0.01290272 -0.06154317]
 [-0.07531714  0.16989405 -0.07469087  0.08295907  0.12905563  0.11447836
   0.11430056  0.03359245 -0.12923771 -0.08517635 -0.05354001 -0.00319754]
 [ 0.31366256 -0.1353116   0.08878964 -0.15961781  0.29330245  0.15203789
   0.08947356  0.16784157 -0.05988408 -0.16384728 -0.11316686  0.02667206]], [[ 1.09369658e-01 -1.74965978e-01  4.53518778e-01 -5.54675683e-02
  -3.00519258e-01 -8.50788653e-02  1.81250051e-01  6.14587218e-02
   1.26794606e-01 -5.21179400e-02 -1.88371763e-01 -1.83542103e-01]
 [ 1.78241834e-01 -1.81575432e-01  7.25916997e-02 -1.90844536e-02
   2.08747014e-01  1.26358159e-02  1.59317292e-02  1.40037909e-01
   3.31347853e-01 -2.21839294e-01  5.23474157e-01  2.46573389e-02]
 [-4.11040932e-02  7.06899613e-02  1.54700890e-01 -1.13480888e-01
   7.29472488e-02  1.28588051e-01  8.03813338e-02  1.40140727e-01
  -8.52809176e-02  1.15627393e-01 -1.64841607e-01 -1.28920138e-01]
 [-2.51752794e-01 -1.04846269e-01  2.36330293e-02  1.11162134e-01
   3.29984128e-01  1.56880617e-01 -1.97678898e-02 -1.76878586e-01
  -7.45395347e-02  3.28380466e-02  4.43763345e-01 -1.07606724e-01]
 [-9.87383723e-02 -6.46175444e-03  6.65326267e-02  9.28846747e-02
   6.52621686e-03  1.01270929e-01 -1.28744870e-01  9.90387350e-02
  -7.72266313e-02 -4.80467677e-02 -1.04824200e-01 -5.43557256e-02]
 [ 2.68725514e-01  1.10521480e-01  3.24683309e-01 -1.73207983e-01
   1.06746487e-01 -8.29091668e-02  3.17501038e-01 -9.13249701e-02
  -6.09873123e-02 -2.17265278e-01 -2.58735269e-01  1.56126451e-04]]}, 
{[[ 0.05469135  0.17623596  0.39523184  0.05884192 -0.15744014 -0.08252617
   0.38562483  0.00473598 -0.07251174  0.32458657  0.10795379 -0.10485407]
 [ 0.49335015  0.03314146  0.00919559 -0.1955776   0.02944993  0.01399877
   0.11031885  0.09845179  0.24841873  0.04970763 -0.22035882 -0.02854889]
 [-0.0559496  -0.04708423  0.09667791  0.08988331 -0.18774945 -0.01430163
   0.17750458 -0.09381615  0.04921736  0.11049241  0.08865891  0.09818928]
 [-0.0361489  -0.10527987 -0.17214274 -0.11144841  0.14870636  0.24869339
  -0.301782    0.00646333  0.2483518  -0.03065135 -0.21443872  0.05676929]
 [-0.03588094 -0.11441668 -0.07633259 -0.16744642 -0.17087778 -0.10991041
   0.07025452  0.08344643  0.00885169  0.07812388  0.18241112 -0.05204278]
 [ 0.13704047  0.03644376  0.36797234  0.03493761 -0.01747057 -0.1719302
   0.32799867  0.08138365  0.07248853  0.13407879 -0.03570012 -0.18152054]], [[ 0.20303321  0.09905799  0.47552565 -0.07583153 -0.07506281 -0.01507779
   0.36421043 -0.00430362  0.14391387 -0.04360345 -0.1111632   0.1016546 ]
 [ 0.40228105  0.1163265   0.3001109   0.02624453  0.4401542   0.3474176
   0.22006904  0.08904851  0.06110168  0.02056758 -0.10835411  0.11578541]
 [ 0.00708385 -0.02040842 -0.13009046 -0.02561438  0.0467881  -0.10614353
  -0.15610513 -0.12084081  0.02642716  0.11491697  0.08027951 -0.0571679 ]
 [ 0.23040661  0.06923531 -0.17083012  0.12865569  0.3405731   0.30281547
   0.14135048 -0.02081315  0.19548565  0.06668138 -0.06705491 -0.16296756]
 [ 0.11833273  0.04121198 -0.17313361  0.0992886  -0.175245    0.06731094
  -0.08640938 -0.11630168 -0.11482881 -0.17317839 -0.0200184  -0.09860944]
 [ 0.25948086  0.06632276  0.11360472 -0.03916736 -0.2443968  -0.14492394
   0.4789758  -0.00230852  0.0511021  -0.04701484 -0.09345526 -0.0730326 ]], [[ 0.12742619  0.00523877  0.5053716  -0.22050802 -0.31720638 -0.12340269
   0.41202384  0.16264631 -0.05788467 -0.24982049 -0.08460232  0.08092104]
 [ 0.20520523  0.16738053  0.18822977  0.17874615  0.1719578  -0.03855371
   0.4395432  -0.1527309  -0.02620038 -0.35870722 -0.01835173  0.07455548]
 [ 0.02442448 -0.10644495  0.09030716 -0.08534391  0.1248254   0.1667868
   0.10973151 -0.04225937 -0.09107236 -0.18350214 -0.10224301 -0.04806544]
 [ 0.07623786 -0.10771804 -0.09009228  0.02566649  0.33449286  0.1653915
   0.04507627 -0.12628159  0.02179624  0.16805528  0.41068226 -0.04390542]
 [-0.0743105   0.0385484   0.1022792   0.0489555  -0.01214696  0.04724087
  -0.0756842   0.08808155 -0.03018591 -0.0388114  -0.10897378 -0.10019573]
 [ 0.27016237  0.06130056  0.17956166 -0.01917278  0.08810274 -0.0518137
   0.01529271 -0.01753492  0.07671178 -0.37604594 -0.32704306 -0.10629606]]}, 
{[[-0.19612883  0.05594973  0.3336666  -0.16959892 -0.10554066 -0.27816704
   0.3225404   0.11023732 -0.12123158  0.17873847 -0.00354189  0.02370745]
 [ 0.29018444  0.14730047  0.32925853  0.07710411  0.105828   -0.20227814
  -0.01916629 -0.15685908  0.13325822 -0.2715759  -0.14253516  0.10357745]
 [-0.1378209  -0.08343199 -0.04246502  0.09033652  0.06968777  0.1258051
  -0.18586399  0.11868624 -0.04930367  0.14393507 -0.07777311  0.11354856]
 [ 0.20520866 -0.13980825  0.12074158 -0.11770344  0.22472374  0.03305133
  -0.15198646 -0.15868558  0.23801287  0.14937493  0.03645075 -0.0745563 ]
 [ 0.08308373  0.03208141  0.17317183  0.11419694  0.0558798   0.04588859
  -0.12175073 -0.08493018  0.17409019 -0.14085937  0.02784805  0.15069474]
 [ 0.07728834  0.12365104  0.08768728 -0.11059944 -0.1398862  -0.41592267
   0.5124284  -0.17732684 -0.16369244  0.01958966 -0.08932056  0.09859656]], [[ 0.2247103  -0.05970585  0.4593945   0.06634831  0.03293683 -0.16856632
   0.39285126 -0.11371535 -0.08389943  0.13841932 -0.14697033 -0.18670031]
 [ 0.17034502  0.1132683   0.23531015 -0.01855352  0.14653267  0.14095192
   0.25407222 -0.01182562  0.12321453 -0.28135175 -0.19028862 -0.17197275]
 [ 0.15457389 -0.01415411  0.12469463 -0.03758562  0.15962447  0.13258378
  -0.18888277 -0.14507505  0.1363426  -0.06026863 -0.05739726  0.09481971]
 [ 0.0166038  -0.09723003  0.02333228 -0.20437728  0.12245589  0.01712233
  -0.11768989 -0.03647134  0.10437811 -0.09453014 -0.15837616 -0.0770252 ]
 [ 0.15686513  0.03796053  0.00461218  0.13500236 -0.00422859  0.09651838
   0.02078168  0.07907842  0.00934476  0.18255638  0.18432336  0.11686294]
 [ 0.19631957 -0.14697804  0.3674228  -0.13479333 -0.23991816 -0.19298643
   0.17860055  0.01843844 -0.02316551  0.01246771 -0.11104563 -0.13876265]], [[ 0.15595987  0.11763175  0.3781863  -0.05952174 -0.36274877 -0.08559231
   0.18342845  0.08347206 -0.08444451 -0.20362313  0.06028487  0.14705023]
 [ 0.18471602 -0.02075447  0.33154908 -0.0152448   0.24098037 -0.14911878
   0.57284963 -0.10232976  0.07393294 -0.35770324  0.13609192 -0.00878383]
 [ 0.1838919  -0.12337414  0.10315178 -0.13975686 -0.07659844 -0.15500961
   0.15331586 -0.18811533 -0.11616486  0.04912275  0.14350344  0.03695838]
 [-0.03192311  0.06337233  0.23660144 -0.09578792  0.09314094 -0.17533894
   0.37931895  0.16042623 -0.08531895 -0.2282082   0.14454937  0.03108252]
 [ 0.06439434 -0.01505746  0.00771084 -0.01437452  0.04586767 -0.0620445
   0.04811487  0.05593927  0.16748722  0.16913693 -0.0363462  -0.10679898]
 [-0.01756379 -0.02999383  0.24158154  0.04451367 -0.18548435 -0.21246096
  -0.07884543 -0.19560355 -0.09727816 -0.1554106  -0.18276684  0.12150349]]}}