#define LAYER0_TOTALINPUTSIZE 1536
#define LAYER0_TOTALOUTPUTSIZE 8280
#define LAYER0_INPUTX 48
#define LAYER0_INPUTY 32
#define LAYER0_INPUTDEPTH 1
#define LAYER0_OUTPUTX 46
#define LAYER0_OUTPUTY 30
#define LAYER0_OUTPUTDEPTH 6
#define LAYER0_KERNELSIZEX 3
#define LAYER0_KERNELSIZEY 3
#define LAYER0_STRIDEX 1
#define LAYER0_STRIDEY 1


#define LAYER1_TOTALINPUTSIZE 8280
#define LAYER1_TOTALOUTPUTSIZE 2070
#define LAYER1_INPUTX 46
#define LAYER1_INPUTY 30
#define LAYER1_INPUTDEPTH 6
#define LAYER1_OUTPUTX 23
#define LAYER1_OUTPUTY 15
#define LAYER1_OUTPUTDEPTH 6


#define LAYER2_TOTALINPUTSIZE 2070
#define LAYER2_TOTALOUTPUTSIZE 3276
#define LAYER2_INPUTX 23
#define LAYER2_INPUTY 15
#define LAYER2_INPUTDEPTH 6
#define LAYER2_OUTPUTX 21
#define LAYER2_OUTPUTY 13
#define LAYER2_OUTPUTDEPTH 12
#define LAYER2_KERNELSIZEX 3
#define LAYER2_KERNELSIZEY 3
#define LAYER2_STRIDEX 1
#define LAYER2_STRIDEY 1


#define LAYER3_TOTALINPUTSIZE 3276
#define LAYER3_TOTALOUTPUTSIZE 720
#define LAYER3_INPUTX 21
#define LAYER3_INPUTY 13
#define LAYER3_INPUTDEPTH 12
#define LAYER3_OUTPUTX 10
#define LAYER3_OUTPUTY 6
#define LAYER3_OUTPUTDEPTH 12


#define LAYER4_TOTALINPUTSIZE 720
#define LAYER4_TOTALOUTPUTSIZE 768
#define LAYER4_INPUTX 10
#define LAYER4_INPUTY 6
#define LAYER4_INPUTDEPTH 12
#define LAYER4_OUTPUTX 8
#define LAYER4_OUTPUTY 4
#define LAYER4_OUTPUTDEPTH 24
#define LAYER4_KERNELSIZEX 3
#define LAYER4_KERNELSIZEY 3
#define LAYER4_STRIDEX 1
#define LAYER4_STRIDEY 1


#define LAYER5_TOTALINPUTSIZE 768
#define LAYER5_TOTALOUTPUTSIZE 192
#define LAYER5_INPUTX 8
#define LAYER5_INPUTY 4
#define LAYER5_INPUTDEPTH 24
#define LAYER5_OUTPUTX 4
#define LAYER5_OUTPUTY 2
#define LAYER5_OUTPUTDEPTH 24


#define LAYER6_TOTALINPUTSIZE 192
#define LAYER6_TOTALOUTPUTSIZE 192
#define LAYER6_INPUTX 4
#define LAYER6_INPUTY 2
#define LAYER6_INPUTDEPTH 24
#define LAYER6_OUTPUTSIZE 192


#define LAYER7_TOTALINPUTSIZE 192
#define LAYER7_TOTALOUTPUTSIZE 24
#define LAYER7_INPUTSIZE 192
#define LAYER7_OUTPUTSIZE 24


#define LAYER8_TOTALINPUTSIZE 24
#define LAYER8_TOTALOUTPUTSIZE 3
#define LAYER8_INPUTSIZE 24
#define LAYER8_OUTPUTSIZE 3


const float layer0_weights[] = {-0.024885053, -0.15364157, 0.25569433, 0.022719534, -0.16148128, 0.5213941, 0.2554571, -0.23740506, -0.16513146, 0.2390435, 0.31160775, 0.5504652, 0.17686087, -0.19847827, 0.49651316, -0.2540779, -0.23428468, 0.065287136, 0.58628154, 0.34898806, -0.26263583, 0.15387987, -0.3274717, 0.21246319, 0.52271837, 0.09752042, 0.20427208, -0.3102204, 0.041138142, -0.031557616, 0.4089604, 0.018666128, 0.4725095, 0.026154868, -0.12547761, 0.47499225, 0.4266051, 0.4424984, -0.20802923, -0.3268852, 0.11270403, 0.0023497331, 0.31322497, 0.011540195, 0.35056117, -0.076234974, 0.42972296, 0.40913242, 0.5656677, -0.118160956, 0.32053006, -0.13008998, 0.02685203, 0.37533504};

const float layer2_weights[] = {0.0846462, 0.26124212, -0.2464191, 0.042126138, 0.12562947, -0.104149364, -0.04575169, -0.1228121, -0.28743654, -0.19195707, -0.19536737, -0.039125696, -0.07340773, 0.40366292, 0.2031137, 0.07983193, 0.29240066, 0.1788628, 0.08541262, 0.23003712, 0.33420697, 0.058526587, 0.10076973, -0.019965455, 0.14798094, 0.22272667, 0.046114784, 0.067609295, 0.16641602, 0.10639907, -0.19225362, 0.009453681, -0.041423757, -0.1726894, 0.042060025, 0.008446813, -0.013866186, 0.04935845, -0.00032600347, -0.03800237, -0.21164097, 0.1641241, 0.09627417, 0.05774647, 0.13623522, 0.13565274, -0.1343767, 0.16611387, 0.0039239516, 0.22281754, 0.24904229, -0.054216743, 0.18110098, 0.19769543, 0.4267056, 0.24714656, 0.17608911, 0.3541418, 0.045065835, 0.022237748, -0.031183966, 0.04626658, -0.2007342, -0.16490951, 0.11649978, 0.083360404, -0.103845626, 0.14708683, -0.29765683, -0.13652189, -0.16706678, -0.11563526, 0.093831755, 0.08846608, -0.25260434, -0.1552384, 0.29624927, -0.09443574, -0.20516525, 0.16262664, 0.059395086, -0.066729814, 0.14568175, -0.18286164, -0.1521587, 0.31199273, 0.26198015, 0.08434327, -0.016908312, 0.26059884, 0.023300584, 0.2752237, 0.016702369, 0.25202283, 0.23850961, -0.05792512, -0.00043615824, -0.16286859, -0.19306779, -0.1390565, 0.015071614, -0.22753522, -0.095216334, -0.11690134, 0.11111708, -0.015024977, 0.097778834, 0.161088, 0.084344625, -0.041794237, -0.014220701, -0.091658294, 0.043490745, -0.051065937, -0.13195792, -0.11655077, 0.061622087, 0.10327026, 0.038221344, 0.11994006, -0.006480514, 0.15342282, 0.12113392, -0.18053062, -0.03212095, 0.33143073, 0.037286706, 0.24624391, 0.17648637, 0.10193245, 0.28262013, 0.039887145, -0.086289056, -0.030643864, -0.011815538, -0.051411778, 0.29449964, 0.010620532, -0.1713588, -0.056008544, 0.02969985, -0.22821571, -0.102458745, 0.06269877, -0.07640727, -0.24389917, -0.14672692, 0.064856954, 0.30364963, -0.116289414, 0.054001335, -0.16282085, -0.030597702, -0.07840457, -0.02979836, -0.12854573, -0.042904317, 0.07966316, 0.2923347, 0.023910994, 0.027412046, 0.011006221, -0.13644508, 0.416854, 0.15279561, 0.29889494, 0.10920473, -0.05408965, -0.059766747, -0.24873017, -0.121952325, 0.016463682, 0.18552338, -0.039447147, 0.27292532, -0.12508564, 0.046949793, 0.19033244, -0.16925529, -0.08399246, -0.20403463, -0.17792048, 0.16875106, -0.12842925, 0.18873042, 0.06550883, 0.20848759, -0.13688557, 0.12152478, 0.16862878, 0.1159835, 0.06555323, -0.11201114, -0.08931955, 0.57747906, 0.12075703, 0.189807, -0.06290683, 0.45996743, 0.43822977, 0.34539497, 0.4422725, 0.34411642, 0.06101589, 0.13952914, -0.011928046, 0.032485515, -0.122536264, 0.080076225, 0.110224165, 0.027567506, -0.12918243, -0.0767275, -0.08773657, -0.22923286, -0.17728944, -0.018135294, -0.03752278, -0.118238285, -0.014571884, 0.17897925, -0.015327575, 0.012632342, 0.039674886, -0.11054389, 0.049474213, 0.16788717, -0.02155143, -0.048118122, 0.0441718, 0.2644986, -0.050425306, 0.044354897, 0.040832724, 0.09846437, 0.17174242, 0.21021812, 0.28318074, 0.43037286, -0.14251709, -0.031591784, -0.08065272, -0.08974628, -0.06277514, -0.11424677, 0.14766152, -0.16594078, 0.1679162, -0.2473819, -0.16612995, -0.12701395, 0.008150503, -0.039033107, -0.13247997, 0.13031013, 0.12642546, -0.16993606, -0.037978213, 0.18641554, 0.017191507, 0.08889274, 0.049436044, 0.029250104, 0.06539746, -0.1527614, 0.12856263, 0.5234556, 0.07743735, -0.03917827, 0.20479378, 0.07307722, 0.16245863, 0.3808937, 0.29663977, 0.34152365, 0.15659471, 0.06515587, 0.24316686, -0.29093274, -0.018608393, 0.12503843, 0.058189746, -0.1437013, -0.053940922, -0.185871, -0.111785196, -0.10416106, 0.08030726, -0.11480287, 0.004271943, -0.08422863, -0.08758995, -0.002135176, 0.18526132, -0.051964846, 0.09149574, 0.04453772, 0.1469279, 0.004077192, 0.022964418, 0.021195963, 0.3606914, 0.13885158, -0.14345881, -0.32150382, 0.4213389, 0.37123734, 0.40771857, 0.057619244, 0.22084229, 0.19102833, 0.053073883, -0.18495882, -0.14655066, 0.20349135, 0.13869421, 0.015945017, 0.17602478, -0.12337727, 0.18452208, -0.052029304, 0.24102403, -0.15191562, 0.14312087, -0.0077294395, -0.19368489, -0.116074674, -0.10739049, -0.014735019, 0.1819211, -0.07861682, 0.07018686, -0.1580536, 0.15935586, 0.09830176, 0.07967536, -0.06320665, 0.29367724, 0.34937826, 0.16808204, -0.07718306, 0.20471112, 0.24871764, 0.3631158, 0.09517267, 0.440882, 0.51402503, 0.092201784, 0.06672431, -0.12559508, -0.1505296, 0.021907987, 0.1484421, 0.057674017, -0.14581574, 0.1712371, -0.033030383, 0.1326828, -0.0694865, -0.12296385, -0.04982801, -0.07805166, 0.27014798, -1.711166e-05, 0.36319292, 0.039195888, -0.058816645, 0.19574521, 0.18382831, 0.024212196, -0.0080524115, -0.17363378, -0.06946963, 0.1018978, 0.32263136, 0.109037735, 0.124714084, 0.33661678, 0.16203955, 0.23961945, 0.07973214, 0.31394264, 0.40867287, 0.17368849, -0.111402094, -0.0069625764, 0.31281823, -0.10336997, 0.13741718, -0.1417502, 0.28113246, 0.07597204, 0.2726463, -0.062235147, -0.14048482, -0.07194776, -0.19423, -0.17284635, -0.11811744, 0.0697224, 0.14889239, 0.07201731, 0.12619574, -0.15320922, -0.14227015, -0.03777842, 1.5111902e-05, 0.11184932, 0.046023656, -0.050767228, 0.47266582, 0.013388754, 0.28836763, 0.0435827, 0.488321, 0.23882218, 0.4535457, 0.4947352, 0.2408475, -0.07904941, -0.0060017, 0.03258773, 0.21032822, -0.18704224, 0.3062567, 0.12483233, 0.20590672, 0.014731199, 0.15983726, -0.091052555, 0.015647491, -0.1922807, 0.0095071625, 0.25176132, 0.08878079, 0.030864585, 0.10248976, 0.23495078, -0.045687005, 0.017041134, -0.06863062, -0.116516285, 0.23591459, 0.11120175, 0.16043587, 0.20891087, -0.034370467, -0.023857612, 0.14529349, 0.30805513, 0.11379823, 0.30001143, -0.124469325, 0.23903519, 0.18571834, -0.096025266, -0.002405236, 0.025984248, -0.09520968, 0.08675568, 0.10910859, 0.1888222, -0.16274612, -0.008786639, 0.08169995, 0.040164318, 0.18680307, -0.051849887, -0.057662733, -0.047633808, 0.025952583, -0.12966341, 0.15908964, 0.10681285, 0.0562792, -0.0378724, 0.03012159, -0.06821112, -0.010527505, 0.0082166195, 0.12526003, 0.37410516, 0.4255361, 0.12170109, -0.13111253, -0.02669477, 0.06056543, 0.19279887, 0.09529719, 0.35889047, 0.40099287, 0.06356545, -0.09394073, 0.096049905, -0.101653755, 0.03078667, -0.059057392, 0.0053871395, -0.061631974, -0.08655727, -0.101739496, 0.16757233, 0.11442888, 0.089065865, -0.19877425, -0.033553775, 0.27748147, -0.09241593, 0.069482, 0.1787851, 0.021569405, -0.049798466, 0.11887653, -0.12578276, 0.26070255, -0.05080305, -0.05063878, 0.30707067, 0.15847564, -0.052389886, -0.09136182, 0.2663273, 0.079254694, 0.11962921, 0.30764693, 0.13376662, 0.481425, -0.04432088, -0.08910528, 0.002976402, 0.09289792, 0.16334286, -0.02863599, 0.06377395, 0.12049382, -0.013696493, 0.27661464, 0.07994966, 0.24954394, -0.015820786, 0.18555954, -0.08239521, 0.13488494, 0.166048, 0.13927238, 0.06494329, 0.084988385, 0.14799376, -0.13051449, 0.11919824, -0.0003192105, -0.1590046, -0.19634049, 0.050406188, 0.4861766, 0.011420774, -0.09489033, 0.18833551, 0.30952412, 0.15269841, 0.21324123, 0.20073828, 0.4545337, -0.06938103, -0.12619722, 0.13063751, -0.01848374, 0.010754989, 0.06701945, 0.3172936, 0.12323759, 0.00029917934, 0.09655282, 0.18472299, 0.10632599, -0.1651231, -0.14302593, -0.15973197, 0.28104025, 0.016433869, 0.24969724, 0.17860366, 0.18994947, -0.12536083, -0.0877751, 0.23003007, -0.09717584, 0.07603939, 0.11630027, 0.051591028, 0.2793407, 0.0891794, -0.29354513, 0.4210821, 0.2531655, 0.072407484, 0.08260933, 0.34636435, 0.18098918, 0.013968408, -0.11384557, -0.041455146, 0.3530887, 0.141305, 0.32827276, 0.22149433, 0.33702302, 0.11109742, 0.20422126, 0.19575037, 0.1493304, 0.028364882, -0.18441774, 0.095212325, 0.09543288, 0.104476765, -0.106410414, -0.08150798, -0.14464657, -0.18466724, -0.04553864, -0.21783893, 0.15765524, 0.03453031, 0.042833287, 0.11475021, 0.21745704, 0.19355305, -0.07480521, -0.042598035, 0.65555245, 0.3281931, 0.38481867, 0.30707732, 0.2938979, 0.07719566, 0.066693395, -0.16805907, 0.12266357, -0.09533878, 0.21276535, 0.26065958, 0.26076275, -0.18541695, 0.2574917, -0.050019976, -0.02111614, -0.015591964};

const float layer4_weights[] = {0.05290021, 0.11063185, -0.03880232, -0.06127724, 0.09336062, 0.046803817, -0.00026874244, 0.10682723, -0.04121669, 0.085049495, -0.062472455, -0.02681765, 0.0747488, -0.08428543, 0.07338853, 0.040033013, 0.10935642, -0.10997, -0.12543476, 0.12624097, 0.053308778, -0.06726579, 0.111830845, 0.05565791, 0.06693811, -0.10389293, 0.06732215, 0.018646501, 0.008006334, -0.07500994, -0.09009697, 0.0046409816, 0.28198063, 0.130281, -0.026028192, -0.13116843, -0.052201837, 0.104651816, 0.11556358, 0.022146657, 0.055145368, -0.21870296, 0.07147381, -0.11479829, 0.12181718, 0.101869226, -0.032566868, 0.056166545, 0.024369512, 0.113496944, 0.02638805, -0.13938867, 0.12186862, -0.12650855, -0.02739361, 0.05370526, -0.013135413, -0.013366133, 0.265771, -0.046670526, 0.10168478, -0.12549238, -0.027501978, -0.048249125, 0.2107841, 0.054604255, 0.1330299, -0.0042657554, 0.07752326, -0.005695954, 0.06275551, -0.06395566, -0.057804458, 0.013755828, -0.051200107, -0.08004495, -0.095402464, 0.13172388, 0.13177681, 0.031324416, 0.10181958, 0.015414551, -0.056672946, -0.119611435, -0.12957087, -0.1392285, 0.05031354, 0.06420134, 0.09460005, -0.07538625, -0.03503326, 0.0023943782, 0.007945726, 0.0098515, -0.074372664, -0.013756208, -0.075130455, -0.04013408, -0.03583899, 0.047340345, 0.031719204, 0.07596631, 0.01068081, -0.09704259, 0.044888597, -0.0054341257, 0.053506695, -0.19563505, 0.019385517, -0.14120895, 0.0010457321, 0.17403288, 0.14228854, 0.13311012, -0.12636615, -0.017428719, 0.14035566, -0.02430559, 0.040040452, -0.10564815, 0.022918286, -0.12316366, -0.0014902502, -0.0928663, -0.06384704, 0.026458874, 0.05311908, 0.054161727, 0.08621403, -0.10980824, 0.21576002, -0.24648449, -0.040035963, -0.12998031, -0.10310498, -0.023897076, 0.1565737, -0.130749, -0.11746961, 0.03608501, 0.06775608, -0.084670216, -0.032818623, -0.089970335, 0.25893435, 0.1108865, 0.09377834, -0.09710048, 0.036945555, 0.046434283, -0.079835765, 0.039599523, -0.0076808324, -0.13151978, 0.41054025, 0.2873054, 0.10920389, 0.06030231, -0.12839554, -0.16254246, 0.16115971, 0.30898985, -0.07370222, 0.045144185, -0.14730662, 0.027182102, -0.0056384695, -0.05265613, 0.095241964, 0.08062771, -0.119609155, -0.19297425, 0.12389656, -0.06983593, -0.004365489, 0.09785491, 0.062817916, -0.01464805, 0.16715966, -0.11344714, -0.02715683, 0.03778737, 0.0048577255, 0.10188574, -0.07884231, -0.06452846, -0.016412795, -0.04415741, 0.05425987, -0.11175375, -0.027975516, -0.11828379, 0.12243649, 0.038328335, -0.08439177, -0.018137332, 0.087428525, -0.08017871, 0.035923764, 0.057965398, -0.005373002, 0.12669227, 0.27713472, -0.07310311, -0.09880161, 0.05224381, -0.05348126, -0.045852825, 0.012813295, 0.19312863, -0.028886486, -0.018391714, -0.1051156, -0.058536105, -0.021446377, 0.060005426, 0.08289318, -0.012641773, -0.13525385, -0.14207497, -0.018367037, -0.037054755, 0.020648599, -0.13367051, 0.057848908, -0.015560687, 0.33991876, -0.04288915, -0.07017527, -0.08188342, -0.14745982, -0.112101786, -0.06893812, 0.16073297, -0.0017933215, 0.08491494, 0.05616856, -0.10792762, 0.15817198, 0.11567843, -0.026220765, -0.107103325, -0.052150674, -0.13841645, -0.04215682, 0.09323545, -0.053304628, -0.08663305, 0.19182955, 0.122222155, 0.30410552, -0.26722324, -0.1352805, 0.016068084, 0.18366985, 0.038801957, -0.12133667, -0.18801977, 0.06581441, -0.076445654, 0.20798412, 0.068533316, 0.13800566, 0.04403636, 0.13296697, -0.06706483, 0.08451785, 0.08956222, -0.09323982, 0.094517395, 0.051642776, -0.09519886, -0.12536955, -0.014925778, -0.06829111, 0.080288365, 0.08657047, 0.09888506, -0.0139847845, -0.015305705, -0.02659823, 0.09170103, 0.002555728, 0.05524975, -0.13538693, 0.021322727, 0.11476916, 0.066837296, -0.072371446, -0.116226405, -0.03907641, 0.12413874, 0.00020709634, -0.10446824, 0.052351996, 0.0841745, -0.12187884, -0.022700913, -0.03871683, -0.12646922, -0.04412266, 0.10221457, 0.08207824, -0.07655892, -0.02413011, 0.023600705, 0.003026992, 0.006660819, 0.09834186, 0.026424423, -0.020541675, 0.0076605678, 0.034673333, 0.0049936622, -0.101144575, -0.22763811, -0.103484094, -0.08638842, 0.08437714, 0.08949457, 0.028272664, 0.10166794, 0.021231161, 0.016110744, 0.09239243, -0.188361, 0.17531744, -0.1699933, -0.078353934, 0.10666452, 0.08034372, 0.115107, 0.06561703, 0.08244017, -0.01953222, 0.003313437, 0.02006191, -0.07868372, 0.03661208, -0.07159618, -0.07645659, 0.0983434, 0.06381562, 0.024635196, 0.07528807, 0.013955459, 0.13749097, -0.08660229, -0.029512472, 0.093401924, -0.109064505, 0.032585375, 0.18180458, -0.029889818, 0.014009483, 0.10991816, 0.040006533, 0.11351845, -0.025866661, -0.0075558126, 0.0027335088, -0.048866265, 0.044800013, 0.055856153, -0.089284755, 0.032936618, 0.09862207, -0.13522461, 0.0146489525, -0.13587704, -0.041351654, 0.09273797, -0.051101737, 0.10443973, 0.11342349, -0.14563921, -0.106141895, -0.11719997, 0.10038181, 0.12088111, -0.04607242, 0.010228381, 0.04345224, -0.111860946, -0.07366337, -0.13217494, -0.13550042, -0.031741615, -0.032444783, 0.0023270547, -0.038242877, -0.04445152, -0.09911504, 0.060594752, -0.053756025, 0.050569672, -0.06393311, 0.002421965, -0.17717823, 0.037977766, 0.080398194, 0.18358453, 0.03955234, -0.12415796, 1.6793143e-05, 0.11320633, -0.045079336, -0.13041559, -0.053390928, -0.11610513, -0.033379845, -0.1439658, 0.06875846, -0.12966207, 0.08107856, 0.115943104, -0.053257246, -0.061645113, 0.013104665, -0.0707985, -0.03902071, 0.03014779, -0.1219139, 0.042236306, 0.09297464, 0.03809313, 0.033774912, -0.06080451, -0.012835844, 0.023921087, -0.10013285, -0.07669382, 0.2853738, -0.036743872, -0.081922576, 0.020932563, -0.1274895, 0.069493935, -0.09528578, -0.10504228, 0.22505827, -0.09713636, -0.015015687, 0.3225749, -0.106229305, 0.0634971, 0.026203977, -0.13048081, 0.13312142, 0.009804426, -0.044529054, -0.005706042, -0.022479499, -0.088280946, 0.18360563, 0.0073601305, 0.050026722, -0.08661945, -0.00044728816, -0.090256795, 0.099424966, 0.047293186, 0.12712586, -0.07952972, -0.086437285, -0.08960359, 0.18442123, -0.121415585, 0.08779518, 0.029012972, -0.21419469, -0.034469273, 0.0944781, 0.1776676, -0.07372135, -0.080611385, 0.03681966, 0.116525084, 0.07435534, -0.083399065, 0.14232148, -0.09792648, 0.09125197, 0.14502046, -0.049428213, -0.10004879, 0.02508916, 0.026847437, 0.03662796, 0.089296296, 0.20083769, 0.020240294, 0.06221643, 0.28487438, 0.018414767, -0.24034657, 0.17208678, 0.15166925, 0.12894921, -0.0060149133, 0.11771442, 0.10519111, 0.0061146924, 0.11870021, 0.22630773, -0.12231663, 0.12739858, 0.02530306, -0.042396232, 0.09130041, -0.12740363, -0.03564523, 0.010090401, -0.08428153, 0.23781778, 0.13330552, -0.020692877, 0.10968975, 0.023377748, -0.015102824, 0.11599289, 0.15707159, -0.12046232, -0.02768986, 0.040320348, -0.13523026, 0.20976701, -0.05785159, 0.06428119, -0.02785384, -0.065721236, -0.11111163, 0.113824226, -0.095743544, -0.093444, -0.061076425, -0.10631429, 0.112932235, 0.19231577, -0.00212693, 0.03045921, -0.13179496, -0.08088676, -0.06727385, 0.13446274, 0.10505449, -0.13321224, -0.13120773, 0.1577809, 0.080850154, -0.09720364, -0.09916357, 0.052649707, -0.03437849, 0.09055084, 0.043856233, 0.089408174, -0.019497745, 0.13403356, 0.11623126, 0.13160884, -0.05945471, 0.09697294, 0.053739846, 0.07040654, 0.08114475, -0.08428383, -0.013961911, 0.036109388, 0.1098524, 0.06080307, 0.08826323, -0.0994716, 0.082959145, 0.067034885, 0.059076145, -0.062407643, 0.025304884, 0.023615748, -0.074926354, -0.014433689, 0.022468388, -0.10133827, 0.13074186, -0.075286955, 0.08524981, -0.033895686, -0.036402486, -0.1284524, 0.11977476, -0.035420913, -3.5196543e-05, -0.11885999, -0.010519009, -0.010205045, -0.1284709, -0.07249123, -0.08175039, 0.083447725, -0.0006276369, -0.017412446, -0.07585266, -0.009367779, -0.11792333, 0.017164722, -0.00395371, -0.1259418, -0.124654494, -0.057578076, 0.008791491, 0.06476737, -0.07329591, 0.042396605, -0.15557413, -0.095969215, -0.036997817, 0.18179919, 0.09501179, -0.046092946, 0.07560544, 0.053960793, 0.12905523, -0.06293572, 0.017158553, 0.22235987, 0.054132223, -0.036813527, 0.08866207, 0.096155405, 0.015293822, -0.032869004, 0.01712501, 0.25250113, -0.117389515, 0.09857855, 0.0014547912, -0.089967, 0.003566014, 0.019428888, 0.059593562, -0.1566251, -0.0316848, -0.12209674, 0.05768855, 0.04273687, -0.08645801, 0.1254915, 0.08674191, -0.025269559, -0.12991047, 0.13410962, -0.06724462, -0.015031292, 0.06902495, 0.06025888, -0.07393937, 0.0686107, -0.0832466, 0.052316066, 0.061074086, 0.09740497, -0.10019886, 0.09106569, 0.108824946, 0.10966937, 0.057163633, 0.084139384, -0.1222168, 0.04014128, 0.08597748, 0.11045708, 0.13223681, -0.06292407, -0.001687184, -0.019974425, -0.04000472, -0.11528131, 0.07742867, -0.120350905, 0.02498804, 0.03098689, -0.094420776, 0.14820835, -0.18282148, -0.032246813, 0.0868898, -0.16430424, 0.104205415, -0.08305568, 0.1576754, 0.077801324, -0.1301656, -0.20132117, 0.058657452, 0.045451134, 0.12812814, -0.12181839, -0.043825597, -0.074221805, 0.11738376, 0.07592463, -0.008827671, 0.07431184, -0.08319275, 0.068735234, 0.011667788, 0.011494711, -0.11606437, -0.1334496, 0.113599814, -0.0067166425, 0.14616224, 0.04638142, 0.075816765, -0.087965615, 0.013282388, 0.016262228, 0.03986518, -0.0024827903, -0.038131364, 0.39623922, 0.0023734868, 0.058456093, 0.32617453, 0.013619617, 0.11053422, -0.082116105, 0.04533145, 0.29264018, 0.08865248, -0.12241425, 0.12054045, -0.008835137, -0.11076616, -0.0017899862, -0.016750967, -0.10381693, -0.12972073, -0.12695187, 0.084283575, 0.21714723, 0.07160212, 0.040645473, -0.10025452, 0.011986745, 0.070822015, -0.13583395, 0.05499957, 0.06326854, -0.093262985, 0.11780733, -0.052800246, -0.0038069976, -0.116639465, 0.009676807, 0.009809273, -0.07764186, -0.05007131, -0.054072052, -0.16559607, 0.009396938, -0.020289449, -0.039537292, 0.011832982, 0.045110513, 0.054384783, 0.04441158, -0.094805665, 0.1086876, -0.0043408424, -0.092141666, 0.14555004, -0.051491298, -0.0624623, -0.08528082, -0.10647419, 0.34382853, -0.035177246, -0.054545812, 0.039634995, -0.104880154, 0.09521065, -0.13581555, 0.006139014, -0.07396365, -0.09814179, 0.035150204, -0.09263181, 0.12439662, -0.12644506, 0.15724869, -0.0810356, 0.2205207, -0.010623619, 0.07322909, -0.023482036, -0.06296135, 0.11430919, 0.00377208, -0.11936089, 0.19978167, 0.01040782, 0.021997051, -0.10939342, -0.106434904, -0.07454908, 0.001233819, -0.015560484, -0.038863346, 0.08991039, 0.072636254, 0.0010049045, 0.08245721, -0.06592171, 0.10272624, -0.030939162, 0.041277893, 0.00013169646, -0.04774241, -0.053624965, -0.0028251829, -0.08003718, 0.07725768, -0.0088389665, -0.0715, 0.11565164, 0.11420131, -0.015387558, -0.055714585, -0.042827435, 0.030281588, 0.036455184, 0.12409968, 0.15831202, -0.009514212, 0.102459684, 0.0011313056, 0.04093936, -0.13033134, -0.02824074, -0.080149926, -0.008891225, -0.0070701092, -0.085903406, -0.09430125, -0.05709634, 0.029773653, 0.081791624, 0.024912238, -0.1193289, 0.0036266893, -0.02777049, 0.09871265, 0.105765596, 0.09147003, 0.1347714, -0.054663576, -0.043167137, 0.018273875, 0.044922188, 0.018556073, -0.01892367, -0.017709106, -0.023408435, -0.040013615, -0.11380597, 0.13137248, -0.082214236, -0.004371792, -0.092449404, -0.017698497, -0.09857058, 0.12706031, -0.052001134, 0.121356845, 0.051520273, -0.12540796, -0.019132651, 0.03902932, -0.13042973, -0.08823452, 0.13044287, 0.12231145, -0.100049734, -0.03897862, -0.011283763, -0.026405936, 0.1115085, -0.059404798, -0.11100869, -0.10302608, -0.28455672, -0.102480985, -0.039732896, -0.1143928, 0.025626808, 0.18700811, -0.03897363, -0.018223664, -0.107457064, -0.0064833164, 0.1185905, 0.006972155, 0.06788444, 0.07948392, -0.1485667, -0.07969524, -0.04568649, 0.27275753, 0.027702868, 0.21478684, -0.088721484, 0.14398828, 0.036472112, -0.04443536, -0.02913057, -0.13540064, 0.04365617, 0.0018815994, -0.06635893, 0.052136716, -0.11492294, 0.033029348, 0.09695988, 0.10479136, -0.11385437, 0.07750919, 0.05203245, 0.100192934, 0.16890873, -0.020890467, -0.13036455, 0.037592206, -0.112750486, -0.039475802, 0.08562218, 0.016057001, 0.07043466, 0.11990878, -0.046371326, 0.101779066, 0.11338562, -0.050856777, -0.03063678, 0.09821585, -0.08556588, -0.007510765, -0.06388814, -0.016928166, -0.096233815, 0.023909245, 0.06467107, 0.109259605, 0.054609925, -0.06797264, -0.06456088, 0.1004095, -0.09251718, 0.056860227, -0.10823578, -0.039644565, -0.025672846, -0.036591962, -0.16797452, -0.1211766, -0.12567903, -0.029618114, -0.08189593, 0.10194322, -0.0076983124, 6.891943e-05, -0.119696856, 0.042918503, -0.044473544, 0.111277446, -0.026607813, -0.09946977, 0.046495147, 0.060241, 0.07201116, -0.048642073, -0.10878961, 0.06618527, 0.046698123, -0.033210795, 0.04798384, 0.028572842, 0.03386161, -0.14009312, -0.077358514, -0.020763353, -0.085626125, 0.01575235, 0.0524697, 0.14570548, 0.028991677, -0.081908494, 0.034428257, 0.18924898, 0.017570466, -0.111685745, -0.03730548, -0.011812922, 0.050729856, 0.010045517, -0.09895754, -0.011117184, -0.09334189, 0.18156761, -0.1304058, 0.08124077, 0.06108833, 0.09491741, 0.006088659, 0.08389355, 0.03886725, -0.08714039, -0.12167575, 0.06451241, 0.33380467, -0.032400794, 0.1563939, 0.144441, -0.31487563, -0.041627713, 0.1661826, -0.025756689, 0.08629294, -0.15028739, 0.05993311, 0.23689161, 0.045383498, 0.08683924, -0.12516332, -0.030358076, -0.2271717, 0.08471634, 0.00018759072, 0.035954654, 0.0969145, 0.060106184, 0.13179946, 0.1574274, -0.14748341, -0.029967673, 0.0013146632, 0.22867256, -0.080713205, -0.08095466, 0.04731268, 0.042158123, 0.11031856, 0.14822854, 0.03541033, 0.02595591, -0.05794373, 0.2668233, -0.030452266, -0.080550455, -0.02138114, 0.013441557, 0.008986294, 0.111278236, 0.073579624, -0.12528081, 0.053465754, 0.2499102, 0.24225476, 0.05014968, 0.04136833, 0.09499483, 0.0054618614, 0.09834508, 0.2078758, 0.058508363, -0.036684595, -0.016091393, -0.07285186, 0.15782578, -0.03269007, 0.2514598, 0.007960916, -0.12157245, -0.110102735, -0.01097429, 0.06655587, -0.13284129, 0.016559333, -0.0012161662, -0.07467274, 0.18744291, 0.15651925, 0.06765196, 0.18430944, 0.24061912, 0.044294644, -0.04135899, 0.088034175, 0.100000724, -0.053528108, 0.12444723, -0.113788486, 0.035716057, -0.10257892, -0.06697153, 0.023078114, 0.05925235, -0.07623241, -0.10720131, 0.024557337, -0.042019047, -0.0831057, 0.018682012, 0.1066429, 0.16518858, 0.055732694, -0.111815006, -0.07506687, 0.21385565, 0.122417726, -0.07527145, 0.0016761892, -0.09783085, -0.055982873, 0.053222667, 0.09149161, 0.12835811, -0.1254802, -0.12029312, -0.041042008, -0.110825896, -0.099337995, 0.054630086, -0.052771762, 0.09822121, -0.12454879, 0.031138703, 0.0009318739, -0.07867159, 0.06642054, 0.13136658, -0.109040044, -0.09071212, -0.094012976, -0.098795936, 0.11435506, -0.0140462965, 0.05773583, 0.11702007, 0.033868015, -0.0024400651, 0.114682555, -0.102897055, 0.027743071, -0.1162522, 0.035156935, 0.06778589, 0.1081035, 0.10060462, 0.037845075, 0.009178537, 0.043268844, 0.020583406, -0.0649023, -0.06430954, 0.04575784, 0.06635766, 0.056930397, 0.12864628, 0.11641825, -0.054655656, -0.07397438, 0.13805263, -0.0445982, -0.073587954, 0.11352341, 0.13676564, -0.016641513, -0.10442924, -0.17777029, 0.107424036, 0.11527252, -0.016492791, -0.12586877, 0.21249264, -0.03700281, 0.22063793, 0.15820356, -0.05960305, -0.21025476, 0.13302961, -0.10675685, 0.0977308, -0.08303307, 0.049999107, 0.12353179, 0.0941713, -0.07883796, -0.16120121, -0.13374919, 0.26932296, 0.13219914, -0.039742664, -0.022800991, 0.065158814, -0.08745951, -0.043208763, 0.04313813, 0.07280004, 0.10959625, -0.08504361, 0.116474375, 0.07066259, 0.08745027, 0.1306412, 0.012180904, -0.10378291, 0.15588509, 0.05398411, -0.096255295, 0.06817122, 0.07751231, -0.05684017, -0.017490007, 0.0034939817, 0.12555146, -0.11394256, -0.10086392, -0.0057094675, -0.13088363, -0.1263397, 0.10924643, 0.004645887, 0.094358355, -0.059422184, -0.09813815, 0.09461638, -0.07890664, -0.097640194, 0.0169086, 0.12631956, -0.07004495, 0.09047371, 0.071427405, -0.07751601, 0.1277887, 0.04487905, -0.049637087, -0.009881933, 0.01374878, -0.014649443, 0.022804802, -0.10679374, 0.030467033, 0.008858696, 0.038754955, -0.09701515, 0.022240236, -0.056785822, 0.018498035, 0.020256013, 0.069125704, -0.023395525, -0.00910688, -0.10557089, 0.15463798, -0.05769854, 0.03828281, 0.08304355, 0.108387426, 0.09957887, -0.12948531, 0.02562208, -0.04408756, 0.044508487, -0.14370017, -0.113721795, 0.0008711368, -0.10568952, -0.090126984, -0.18061295, 0.09687139, -0.08955995, 0.10777202, -0.06288891, -0.13366751, 0.17866719, 0.056706373, 0.12234323, 0.068708956, 0.11427135, 0.11649397, 0.08621241, -0.0867991, 0.06791651, -0.075061955, 0.25448662, -0.053072587, -0.05917432, 0.11981647, -0.053444244, 0.095470786, 0.023811713, -0.06634771, 0.04057162, -0.009981662, -0.06716411, 0.13031743, 0.06641872, 0.27875695, 0.23527743, -0.2167044, 0.002193121, 0.11181517, -0.10749345, -0.02578643, 0.0128406435, 0.05491194, 0.071742505, -0.11082012, 0.1868638, -0.062263705, 0.022214249, 0.056148842, 0.08281267, 0.07938945, -0.040237546, 0.002041936, -0.10484352, 0.021792725, 0.024911573, -0.013715593, 0.12607488, -0.04076275, 0.14668581, -0.17222461, -0.030471534, -0.03277771, 0.06535359, -0.11158244, 0.07529214, -0.09093943, 0.11337214, -0.09089544, 0.2764577, -0.06290173, -0.053296387, 0.12073349, 0.053778343, 0.13569683, 0.011635169, 0.010703236, -0.052927032, 0.06392646, -0.1532214, 0.07632633, -0.07562487, -0.020732624, 0.2614208, -0.061682247, -0.1179321, 0.07936648, 0.10683474, -0.052582704, 0.07217096, 0.048758, 0.110108174, -0.11950371, 0.25909075, -0.006764978, 0.08860381, 0.15292536, -0.07805955, 0.11815044, 0.07153973, -0.101719946, -0.036910143, -0.09438609, 0.047674976, 0.273297, -0.11102307, 0.042805918, 0.002755276, -0.08824239, -0.10760012, -0.03496637, -0.06051726, 0.12389609, -0.050126493, -0.042797074, 0.18902646, 0.10350928, 0.22062181, -0.064065196, 0.051208645, 0.09751134, -0.11281102, 0.09457728, -0.056027614, -0.089613065, 0.16240932, -0.03908018, -0.1031049, 0.16324288, -0.08913437, 0.074243434, 0.21606286, -0.25579685, -0.09618168, -0.04118477, -0.07770615, -0.02991537, -0.06784415, 0.027766764, 0.023455676, -0.022190362, -0.010436863, 0.0644225, 0.02108027, 0.04536642, 0.077233255, 0.13597807, 0.1279575, 0.06314863, -0.121919766, 0.13531879, -0.08600871, -0.12641546, 0.09744358, -0.10780692, -0.11473794, 0.017377809, 0.06314944, 0.12153962, 0.102154866, -0.053029925, -0.028156258, 0.07991107, 0.12574911, 0.024917051, -0.10562177, -0.11331654, -0.13439828, -0.026129343, -0.11583506, -0.11701488, -0.014147103, -0.029959172, 0.052675363, 0.13312933, -0.03323839, 0.058102384, -0.06425081, -0.1032121, 0.0020283265, 0.08784993, 0.01750203, 0.06660811, 0.107672855, -0.07669762, 0.10282508, -0.027842611, -0.12182195, -0.0040299445, 0.14657813, -0.113207534, -0.13120845, -0.03152431, 0.022242397, 0.10090235, -0.09902938, 0.04092112, -0.09056941, -0.12272851, -0.018887129, 0.06624742, 0.13330573, -0.2916462, -0.18276861, -0.21956109, 0.14131415, -0.0106368335, -0.1194638, -0.090167925, -0.13021298, 0.05756104, -0.14044225, -0.043891333, 0.41990885, 0.07596849, -0.035502926, 0.31996626, -0.041123506, -0.047755294, 0.07426329, 0.07576205, 0.12554814, 0.12268224, -0.07730811, 0.1216461, 0.055631176, 0.11070751, 0.13483147, 0.16715765, -0.08431067, -0.0929287, -0.14394276, 0.03683929, 0.042810988, -0.05733221, 0.080378585, 0.13311899, 0.15026091, -0.017018363, 0.05917962, -0.08337809, 0.037963163, 0.017198458, 0.047993153, -0.0727662, -0.002557586, 0.09147279, 0.100579396, -0.03875172, 0.10806875, -0.08522345, -0.031170418, -0.06457562, -0.11906077, -0.0961117, 0.072394125, -0.07958467, -0.10402953, 0.063354045, 0.067910075, -0.026152372, 0.04932218, -0.038356468, -0.010836542, 0.12094544, 0.101075016, 0.059198886, -0.10395587, 0.09975302, -0.04299269, -0.074614316, -0.021923812, -0.01428101, -0.09022607, 0.15954584, -0.095079, 0.17018454, 0.08228869, 0.051575307, -0.07184286, -0.021561973, -0.13908774, -0.07972136, 0.05682508, -0.039167814, 0.12920494, -0.06798094, -0.092299506, 0.056398977, 0.019864503, -0.11519058, -0.0010910183, -0.09338446, -0.1169927, -0.0972555, 0.07368096, 0.1177338, -0.11854659, 0.15569352, 0.11689274, -0.030451566, -0.12235256, 0.03547933, 0.038767423, 0.07974531, -0.1438288, -0.0051789135, -0.029472895, 0.035774425, 0.4089201, -0.07372643, 0.06024, 0.5062081, -0.12145079, 0.02462186, -0.07582174, 0.01502195, 0.4898128, -0.032649934, -0.22907253, 0.05292592, 0.09433603, 0.08324862, -0.05196968, -0.09891933, -0.16314456, -0.20827699, -0.12801103, -0.027683213, -0.06378887, -0.010037333, 0.13592727, 0.0029902607, 0.17880718, -0.06742899, 0.12213993, 0.07530845, -0.13667919, -0.04794351, -0.13391228, 0.12451142, -0.108558916, 0.04872036, -0.074865796, 0.031160438, -0.021744668, -0.09072546, -0.041964956, -0.12196266, 0.14277641, -0.048138767, 0.050619166, 0.03156811, 0.03146145, 0.045526475, 0.024266953, 0.06463742, 0.39309216, 0.052065477, -0.09151643, 0.41707304, 0.029695416, -0.12828852, 0.119534105, -0.051151864, 0.4413875, -0.071256846, -0.20172341, 0.2450013, 0.068852216, 0.29129177, -0.010113042, 0.049048766, -0.17103304, -0.2707687, -0.001952031, 0.022621289, -0.07865005, -0.002145335, 0.1837505, 0.05930543, 0.41617522, -0.06357431, 0.060947552, 0.07959275, 0.124408305, 0.123689145, 0.058265254, 0.013693079, 0.045049418, 0.0969961, -0.12909667, 0.23218359, -0.05616557, 0.14322244, 0.0910701, 0.009743496, -0.1350361, -0.0862282, 0.06216884, 0.043032646, -0.0938992, -0.12722324, 0.02478084, 0.06350283, 0.25887704, -0.05917173, 0.039256454, 0.15706237, 0.045436032, 0.060336918, 0.007257253, 0.06918535, -0.099941894, -0.08904047, -0.215434, 0.13964187, 0.019351363, 0.042701636, 0.042055983, -0.17356233, -0.19513814, -0.0761885, -0.075796306, -0.09379255, 0.05509473, -0.112386845, -0.10502582, 0.045821786, 0.043689072, -0.086592525, -0.024176821, 0.08179127, -0.044700563, -0.121432446, -0.076056704, 0.0859862, 0.018294632, 0.032428756, 0.046072647, -0.08368312, -0.1058776, -0.11996527, -0.03884138, -0.06426022, -0.09421407, -0.05802036, 0.117699504, -0.08607867, 0.017946988, 0.043584958, 0.045129478, -0.121833205, 0.01712437, 0.09448774, 0.02259235, 0.10350793, -0.096102186, -0.0015176684, -0.090073094, 0.039293215, -0.07887613, -0.02478224, -0.010675877, 0.10349007, 0.13135958, -0.035330966, -0.008829537, -0.098339744, 0.027073056, 0.07218014, -0.07718718, 0.09086858, -0.023128679, -0.03950219, -0.09462025, -0.046722323, -0.14425953, 0.08296071, -0.039777413, -0.12622058, -0.026250906, 0.12787381, -0.047343343, -0.09156328, 0.1315569, -0.04260876, -0.03623608, -0.11927942, 0.025880486, -0.017929187, 0.057244215, -0.023354076, 0.036969617, 0.10111571, -0.008012693, 0.04495457, 0.2420604, -0.105753794, 0.18562417, -0.0024351627, 0.025031367, 0.07189597, 0.06460008, 0.043489013, 0.04731246, -0.08320491, -0.08462463, 0.044724256, -0.04392189, -0.025126316, -0.095761605, 0.0068052094, -0.054364987, 0.090915695, 0.18198004, -0.13515182, -0.11146529, -0.055690136, 0.11437793, -0.015984118, 0.006112112, 0.104440466, -0.030858202, -0.066088215, -0.056339886, 0.01766251, 0.123857945, 0.05978315, 0.029962124, -0.12816617, -0.09292978, 0.059907734, -0.08348212, -0.015445769, 0.052135378, 0.13352661, 0.114097476, -0.133071, -0.056733724, -0.107388705, 0.05872476, 0.023904229, -0.038678434, -0.030448988, 0.047668718, 0.025294766, -0.0004580984, 0.09692152, -0.118810765, 0.07488188, 0.039452836, -0.17770469, 0.06522782, -0.11060375, 0.057922736, 0.092924654, 0.067258365, -0.07551268, 0.064196445, 0.026690003, 0.0283795, 0.073107235, 0.16098481, 0.13416184, -0.06141777, -0.1152923, -0.13651486, -0.013511807, 0.15425947, -0.12467584, -0.006731568, -0.10202136, 0.08190649, 0.023870438, 0.13099116, -0.1382261, -0.010551393, 0.07933095, -0.11137853, 0.051416293, -0.018191872, -0.065273464, -0.023114393, 0.15456213, -0.016306527, 0.08064004, -0.11554153, -0.0387698, 0.010373324, 0.057992015, -0.07113253, 0.047743514, 0.20475939, 0.09795475, -0.072245635, 0.039305404, 0.31355762, -0.006036103, 0.09219985, 0.22041939, -0.053123005, 0.09088856, -0.037677728, 0.09169844, 0.19494492, -0.027906626, -0.14285208, 0.08563479, -0.11339957, 0.2781239, 0.11205711, -0.30654222, 0.035529014, 0.08260527, -0.09282761, 0.049656913, 0.20251009, 0.09845212, 0.13038154, 0.046073228, 0.09900389, -0.08022261, -0.018739127, -0.074245, -0.0845738, -0.05527071, 0.07407327, 0.111828074, 0.04779585, 0.10261585, 0.06714909, -0.071916744, -0.13025194, -0.047634732, 0.17275642, -0.07803901, -0.06857928, -0.03488727, -0.06925359, -0.055470668, 0.110911675, -0.11307269, -0.022926772, 0.095034465, 0.1615575, -0.100036524, 0.020630911, 0.030374145, 0.085233934, -0.07429126, -0.06492838, 0.04541473, -0.10995379, -0.017799564, -0.16290545, 0.2074042, -0.13435651, 0.17063524, -0.052454676, -0.15852867, -0.0602273, 0.0325161, 0.017048797, 0.030413985, -0.057609335, 0.059875652, -0.1216883, -0.03604258, 0.14447343, -0.072089955, -0.082042515, 0.1989097, -0.010184878, -0.1034995, 0.01430586, 0.05816929, 0.2015755, -0.013724126, -0.021993518, 0.27919918, -0.06427832, 0.11705202, 0.06854168, -0.25996676, -0.022698473, -0.057733152, -0.048555396, -0.11139858, 0.08796733, -0.10912138, -0.051965766, 0.022026584, 0.020013206, 0.114981174, -0.074549586, -0.028117616, -0.102551594, -0.042330973, 0.10230869, 0.05831565, 0.17105071, -0.08368104, -0.044411443, 0.11761631, 0.012539044, 0.19196178, 0.13542989, -0.024081787, -0.02256218, 0.073423184, 0.11068494, 0.09353167, 0.13011041, -0.08628178, -0.101324916, -0.013252512, -0.071678855, 0.117485315, 0.07120471, -0.13538939, 0.05268678, -0.090174, 0.06184578, -0.018761903, -0.07230306, -0.1350375, -0.020756051, -0.018437713, 0.026314184, -0.10229526, -0.057660945, 0.07036884, 0.08237018, -0.00690639, 0.02745594, -0.026618212, 0.10009457, 0.11516526, 0.013452694, -0.02470015, -0.014609478, -0.117397465, 0.12552696, -0.12470911, -0.04839413, 0.031450585, -0.018107004, 0.025427103, 0.061804116, -0.11137246, 0.08560504, -0.128977, -0.12618987, 0.03811884, 0.018437723, -0.052163664, -0.07821234, 0.05870487, 0.10934943, 0.012461662, 0.0846465, -0.03658314, 0.07590863, -0.050594494, 0.050045833, 0.10559164, -0.082069546, -0.38863572, 0.034903258, 0.108758226, 0.030893832, 0.041226134, 0.06608933, -0.10897246, -0.08359602, 0.10162548, -0.048136197, -0.045535292, 0.15506135, 0.13307597, 0.10732675, 0.0834115, 0.12454747, 0.054141015, 0.23324984, -0.048302606, 0.07845602, 0.0031324327, -0.20748495, -0.07998712, -0.1162536, 0.11921608, -0.1345773, -0.11264224, -0.018458739, 0.113129765, 0.029449847, -0.13130629, -0.37200442, 0.20333314, 0.13252038, 0.092821136, 0.021187592, -0.48083392, -0.100625984, -0.053811643, 0.1198802, -0.12202206, 0.06763479, 0.11860871, -0.20788123, -0.12942961, 0.055608038, -0.074416175, -0.08585772, -0.04400591, 0.084394224, 0.010740027, 0.10548651, 0.023538053, 0.03183674, -0.06453532, 0.09501049, -0.10181084, -0.009032786, 0.03939664, -0.042411644, -0.118027605, 0.110558495, 0.10912217, 0.13036259, 0.008066878, -0.08765046, -0.10443404, 0.10025292, 0.13344187, 0.0980258, -0.04782129, 0.10568991, 0.124713585, -0.019814545, -0.09936729, -0.092145205, -0.02662117, -0.06908567, -0.11346267, -0.08874374, 0.076876, -0.061241694, 0.07873922, 0.08234744, -0.15523398, 0.0877229, -0.050521996, -0.027171822, -0.06445193, -0.13962422, -0.053174593, -0.15845834, 0.028737694, 0.06049192, -0.0667339, -0.12702022, 0.06440533, -0.05459071, -0.09569721, -0.013506092, -0.08503029, 0.017549215, 0.016256392, -0.20200846, 0.17977422, -0.03941027, 0.051898744, 0.1555932, -0.17331302, -0.0687731, -0.08257115, -0.0474536, 0.08271429, -0.004247265, 0.11593789, -0.0011872272, 0.049774036, -0.004573536, 0.09232651, 0.116990566, 0.18860257, -0.0012548174, -0.107543215, -0.1355873, -0.07648313, 0.15319753, -0.10366974, -0.5942351, 0.101353385, -0.098589234, 0.06811252, 0.2148596, -0.49192902, -0.042507015, 0.12191509, -0.020173023, -0.068121135, 0.24420635, -0.07862188, -0.027474005, 0.08518958, 0.033356957, 0.013658062, 0.00158602, 0.14770111, 0.05294882, 0.008484706, 0.12798804, -0.058595188, 0.14261524, -0.0875453, 0.019693602, 0.27057922, -0.043104775, 0.09317452, 0.10470084, -0.20817648, -0.043307036, 0.16822778, 0.0318508, 0.02619575, 0.14831832, 0.07191378, -0.0450973, 0.12079641, -0.18247434, -0.11790737, -0.07048372, 0.081240684, 0.034035664, 0.033392668, -0.04208283, -0.0760729, -0.028748654, -0.106132716, -0.34898254, 0.1596226, 0.047789395, -0.14702417, 0.14816482, -0.33015665, -0.13245787, 0.21442586, 0.11799758, -0.07296895, 0.14203352, -0.119989276, 0.022602905, -0.099461116, -0.0802935, 0.065037176, -0.06689774, 0.1212098, -0.023459375, 0.07024756, -0.116551995, -0.039924808, 0.14311238, 0.0101159215, -0.26828566, 0.08431087, 0.122561574, 0.16268753, 0.06332528, -0.04116135, 0.10142464, 0.011859789, -0.0605208, -0.008050263, 0.033270214, -0.081260994, -0.11931336, -0.071307264, -0.051484756, 0.005546838, -0.10130842, -0.053799503, 0.09077751, -0.026565753, -0.10367493, 0.042818815, 0.009768031, 0.04239352, -0.17549735, 0.12030902, -0.006598696, -0.021874294, 0.0035137439, -0.012782188, -0.07500081, -0.10948442, 0.09480808, 0.0029754937, 0.22046073, -0.035715565, -0.1514305, -0.022374906, 0.12590095, -0.12381398, 0.05530049, 0.0077035576, 0.07766119, 0.08528857, -0.10523925, 0.06334537, 0.09576081, -0.119966924, 0.054433346, 0.035235226, 0.028122798, -0.10884142, -0.062666506, -0.12837748, -0.05448678, 0.06055458, 0.050608605, -0.046972312, -0.07253212, 0.107848674, 0.033851713, 0.03374611, 0.012005851, -0.12234074, 0.009319305, 0.06262791, -0.047902726, -0.11615376, 0.074255675, -0.12376016, 0.14305833, -0.047624283, 0.09369911, 0.03020364, -0.011521652, 0.10955528, -0.116226345, -0.06130056, -0.13779223, 0.09939153, -0.0044253916, 0.10052641, 0.12330884, -0.028631702, -0.0024368963, -0.056879416, 0.070506684, -0.011672586, 0.009748712, -0.059268054, 0.06440905, -0.0121628195, 0.026120484, 0.09803845, -0.14068376, 0.111138076, -0.13639568, 0.20427142, -0.07967568, -0.07480613, -0.18429208, 0.089910634, -0.07538668, -0.044266466, -0.111755475, -0.0437271, -0.043931697, 0.032732666, 0.025933351, -0.018378183, 0.2654245, 0.1256091, -0.071809895, 0.28489432, 0.12300206, -0.079236835, -0.05078368, 0.009697184, 0.16968279, 0.008049071, -0.14586926, 0.09579038, -0.03713736, 0.083736934, 0.05391685, -0.1949994, -0.12175738, 0.011088367, -0.024385544, 0.12193689, 0.047124032, -0.06420351, 0.054674257, 0.09281093, 0.12958825, 0.105976686, 0.10818714, -0.028276602, -0.074445784, -0.12644486, 0.11187944, 0.02765949, -0.018899716, 0.038395464, -0.09647171, -0.10632714, 0.048841536, 0.0024005414, -0.053336132, -0.02813061, -0.11230604, -0.1426641, 0.077150635, -0.020247638, -0.007876521, 0.048875228, -0.029483756, -0.032434374, 0.13648465, 0.04953979, -0.0922, 0.10903555, -0.047301058, -0.06407184, -0.023633793, -0.102992624, -0.12683782, -0.104845375, -0.08117209, -0.043155864, 0.12081805, 0.020365585, 0.031031303, 0.08705333, -0.0004256217, 0.012707042, 0.02747382, -0.09842633, -0.20123127, -0.13173272, -0.026446592, 0.066068426, -0.16080299, -0.1265615, 0.021438971, 0.14164266, 0.101960704, -0.060291976, -0.03970451, -0.04418937, -0.17385842, -0.118018135, -0.18838084, 0.027050713, 0.009647712, 0.0610612, -0.04728439, -0.13781692, -0.11105593, -0.1293179, -0.1361157, -0.10919562, -0.15099396, -0.094387226, -0.14647184, -0.09231077, 0.42065874, 0.07741219, -0.08411865, 0.3077211, -0.10020833, 0.09578657, 0.11893183, -0.02702076, 0.265996, 0.08981156, -0.21010885, 0.23031259, -0.07635653, 0.19957921, -0.33967236, 0.04811696, -0.14927496, -0.39028397, -0.101548046, 0.03549099, 0.08136006, 0.11154653, 0.40371314, -0.12394019, 0.023658643, 0.121536314, -0.033193514, 0.048845068, 0.010026315, -0.1202148, 0.11763784, 0.06700416, -0.13083199, -0.10246368, -0.23110858, 0.1517318, 0.11043854, 0.06993427, 0.045653857, -0.20542033, -0.0972242, 0.16755658, 0.016036797, 0.08835031, -0.10595932, -0.04817678, 0.026400821, 0.026713178, 0.4532799, -0.01333829, -0.11439494, 0.1562093, -0.058168806, 0.041985795, 0.050061524, -0.053286105, 0.13302308, -0.06701091, -0.15070342, 0.1038645, 0.017232299, 0.09718472, -0.009268942, -0.10524465, -0.05040893, -0.14605047, 0.12239241, -0.06380752, -0.02862896, 0.0423505, 0.4116112, 0.0117620975, 0.22139667, 0.09312555, -0.11507858, 0.29255676, 0.08019477, -0.041959316, 0.016184017, -0.041284405, 0.14242102, 0.013473913, -0.18350036, 0.15189552, 0.12732652, 0.023126176, 0.006170889, -0.3718189, -0.046912976, 0.10189013, 0.12151929, -0.11812549, -0.061921477, -0.07619703, -0.0949762, -0.048340015, -0.21804795, -0.028563432, 0.01482439, 0.17594756, -0.055363864, 0.055698037, -0.083329245, -0.07334833, 0.07686366, 0.101452634, -0.2515333, 0.22252534, 0.02847664, -0.0029813738, 0.06695234, -0.11868488, -0.27327073, 0.09579131, 0.060964394, -0.009042159, -0.038773105, 0.0012319237, -0.27089104, -0.08749221, 0.13268825, -0.0328497, -0.060199834, -0.116469294, 0.09758815, 0.053944215, -0.044166945, -0.018790878, -0.12241257, 0.02296196, -0.111948095, 0.018180266, -0.09366588, -0.10697773, -0.07009594, -0.09675497, -0.013109945, 0.06081602, -0.12943956, -0.05044703, -0.053561978, -0.09376705, -0.0817197, 0.05282624};

const float layer7_weights[] = {-0.05408298, -0.09564095, 0.042822897, -0.13384423, -0.0078678075, -0.14609002, 0.11985403, 0.14605293, -0.15932597, -0.12089603, -0.030628687, -0.1768477, -0.09810401, 0.01029681, -0.036942724, 0.00498655, -0.0066035325, 0.088003606, 0.013520372, 0.24877533, -0.022073053, 0.13137104, 0.0934533, -0.1535244, -0.02486591, -0.15072763, 0.12933983, 0.11627652, 0.12204863, 0.03406775, -0.12728004, 0.053217843, -0.07159623, 0.031817555, 0.10578604, -0.11144185, -0.10657291, -0.04284986, -0.033135936, 0.06051378, -0.10291688, -0.13074999, -0.13231525, -0.14852564, -0.043948732, 0.0033439845, -0.099310994, 0.0017972738, 0.12429775, -0.019998834, 0.16073303, 0.037424803, 0.13918312, -0.14818272, -0.04543011, 0.09998883, 0.1031443, 0.13165362, -0.020929977, -0.09244561, 0.034767702, -0.02682674, -0.11580615, -0.11151032, -0.07227989, 0.10899635, -0.061545372, 0.12745501, -0.007837608, -0.026049018, -0.13898139, 0.05745451, -0.011396625, 0.1952538, 0.24476184, -0.04216404, -0.14356327, -0.11648755, -0.0038355472, -0.004042251, -0.19991672, 0.01937516, 0.19885653, 0.00054492126, 0.095819555, 0.02635912, 0.08091213, 0.12568621, -0.034794908, 0.29017887, -0.010848163, 0.29653856, -0.0901223, -0.115845956, 0.24306041, -0.1555957, 0.12061705, 0.14526229, 0.11414556, 0.16382386, 0.11306943, 0.057265803, 0.14885072, 0.11245029, 0.124865904, -0.09838466, 0.027501985, 0.059377432, -0.033474132, 0.15847822, -0.082985006, 0.05170615, -0.05349171, -0.024061084, -0.10506849, 0.11409004, -0.12643039, -0.05472736, 0.12142177, 0.11011152, -0.0062399656, 0.07385783, -0.1503071, 0.0140239, -0.15731904, 0.12786953, -0.08291936, 0.048729733, 0.12689818, 0.13839681, 0.06151931, -0.013769746, -0.033889413, 0.029981568, -0.105162464, -0.05008988, -0.064262316, 0.060479686, 0.050147578, 0.043935776, 0.024373963, 0.05837159, 0.12084897, -0.078223154, 0.14867584, -0.120552346, -0.010810375, 0.049329877, -0.16656443, 0.15128721, 0.12725182, 0.0819145, 0.106605366, 0.11126383, -0.04133141, 0.05389853, 0.08961113, -0.08690159, 0.0946589, 0.16334765, 0.16615643, -0.15633008, -0.044003412, -0.09201221, 0.11762889, -0.09513458, -0.13946876, 0.123582736, -0.01974845, 0.105221316, -0.034087583, -0.09269949, 0.014559194, 0.1394731, 0.003557086, -0.045099936, 0.12882142, -0.027831748, -0.08041029, 0.032122806, 0.16041546, -0.05819285, -0.13302815, -0.16599111, -0.024728134, 0.01768136, 0.13577266, -0.060129963, -0.009489819, -0.12730667, 0.038719893, 0.111226395, -0.15960161, 0.078797705, -0.083545536, -0.1507649, 0.14303446, 0.020577459, 0.22586356, -0.11838528, -0.10186578, -0.116606355, -0.21623254, 0.056404866, -0.11618321, -0.053622905, 0.15431261, -0.13505022, 0.063985966, -0.19998133, 0.11793229, -0.045357484, 0.07479795, 0.082674205, -0.041328117, -0.022108316, 0.119949535, 0.082497194, -0.06516914, 0.015499786, 0.01845546, -0.12292528, -0.08426186, -0.05100473, 0.028063297, -0.031560138, -0.01907003, -0.094307825, 0.15100472, 0.08100708, -0.048044644, -0.013987258, 0.08822562, 0.16536058, -0.15009217, 0.09203927, 0.055503488, -0.12664545, 0.04898064, 0.12627451, 0.008604882, 0.21526542, 0.26643255, 0.33140975, -0.11741169, -0.053657934, -0.09316329, 0.05581217, -0.006724419, -0.12154417, 0.09939114, -0.09262874, 0.3648967, 0.068042636, -0.0025432855, -0.14374964, 0.16890232, 0.22679229, 0.10734681, 0.106449604, -0.003195394, -0.03667471, 0.050935183, -0.12540531, 0.018889708, -0.08965381, 0.3398565, -0.0971079, 0.14713213, -0.052450053, 0.038921103, 0.25076985, -0.22218634, -0.1458348, 0.18485922, -0.100749835, 0.18736242, 0.14995088, -0.11002872, -0.15007795, -0.084956534, 0.3074806, -0.29163063, 0.17099288, -0.104852915, 0.035582628, -0.066359736, -0.14900395, 0.06284757, -0.04875779, -0.14430451, -0.11970489, -0.097912356, -0.09840703, 0.077996016, 0.06661594, -0.014155224, -0.08907934, 0.15100159, 0.07268739, -0.14122462, -0.03268099, 0.106083915, -0.159223, 0.05831571, 0.086814806, -0.06262867, -0.069308005, 0.07926805, -0.049205706, -0.04535918, 0.08787842, -0.106591105, 0.06656587, 0.18174602, -0.16983272, -0.07305797, -0.09017023, -0.04837945, -0.10028846, 0.0015775947, -0.16365127, 0.12433689, -0.10134002, 0.027840527, 0.1391221, -0.003904526, -0.18164714, -0.12924668, -0.046310768, -0.10048458, 0.015241244, -0.014224461, -0.08560706, -0.07310286, 0.042692184, -0.037045613, -0.078825556, 0.19437326, -0.15893978, -0.025979217, 0.036845084, -0.09612868, -0.050185602, -0.15890022, -0.01288791, 0.1242183, -0.110690296, -0.16146341, -0.1303441, 0.084004626, 0.016139206, -0.04757993, -0.01175035, -0.05439165, 0.18339863, -0.18055269, 0.017838323, -0.11196016, 0.007861018, 0.10581402, 0.122944094, -0.15088284, 0.08865329, 0.17427567, 0.04499309, 0.07542255, -0.19747557, -0.060465734, 0.07594836, -0.09436263, 0.06966181, -0.16084954, -0.14274982, 0.018833436, -0.08081223, -0.11059649, -0.20918374, 0.0878648, -0.17286715, 0.17789514, -0.09715484, 0.04807378, -0.016271159, -0.020094944, 0.0065501225, -0.21286009, 0.02468743, -0.01087214, -0.15489939, 0.05807715, -0.0944656, 0.121775, 0.16589718, 0.087446995, 0.18730617, -0.028543165, -0.032629758, -0.12148431, 0.15717177, 0.07647073, -0.03587968, 0.03561186, -0.035325244, -0.0055524767, 0.029016597, -0.07299374, 0.023354813, -0.09362283, 0.025312169, -0.1316028, 6.7697125e-05, -0.06159216, 0.11361648, -0.0772994, -0.110561125, 0.1494113, -0.078484416, 0.13967709, 0.10791513, 0.15683073, 0.08766326, 0.12043317, 0.016830087, -0.0067903753, -0.04269463, -0.03583039, 0.15080261, 0.05138895, 0.044710517, -0.005685171, 0.040898368, 0.09076567, -0.0496304, -0.017696664, 0.1602594, 0.025401518, 0.03292832, -0.10683106, -0.0025704354, -0.015491681, 0.048016503, -0.15083563, -0.06384061, -0.09778075, -0.030447796, -0.084684804, -0.06697782, -0.12331172, -0.021776177, -0.1580898, -0.006993777, 0.016899697, 0.03900603, -0.051809475, -0.08941662, -0.0063343495, -0.07940392, -0.0640715, 0.15424721, 0.16636737, -0.1647242, -0.0756865, -0.061067544, -0.12580582, -0.04489152, 0.1365328, -0.09130955, -0.106326744, -0.070160314, -0.12327286, -0.037827805, 0.13275199, 0.037838697, 0.031932548, -0.038424537, 0.030298665, -0.06430658, 0.06644364, -0.08241992, -0.07491523, 0.03460991, 0.036574036, 0.08467961, 0.041774575, 0.15038972, 0.19275193, -0.021296937, -0.04397381, -0.15803167, 0.04744272, 0.19677202, -0.20605005, -0.114440545, 0.13054323, 0.092179134, 0.12126006, -0.17290238, -0.053088777, -0.10345907, 0.15491858, 0.027846655, -0.15610027, 0.13118331, 0.13912924, -0.15964215, -0.048782036, -0.11133294, -0.14082524, 0.026495889, 0.137284, -0.01248996, 0.012197211, 0.061929464, -0.07708987, -0.07378769, 0.0004826337, 0.06783767, 0.027038619, 0.14169939, -0.076888084, 0.0733968, -0.16450076, -0.07483618, -0.055357933, 0.09137194, -0.039982796, -0.09846024, 0.01810506, -0.13169569, -0.19816303, 0.058368195, 0.04329145, -0.17192486, 0.20079477, 0.066693336, -0.004697973, 0.13725357, -0.09176965, -0.0928059, -0.17076224, 0.07257309, 0.046241775, -0.05911064, -0.07978202, -0.09564059, -0.06430118, -0.11737156, -0.043564796, 0.18757556, -0.050922796, -0.048655152, 0.027709171, 0.0031488389, 0.039092973, 0.061424896, -0.1177489, -0.09943911, 0.12016846, 0.0079764575, -0.08701889, 0.07908587, -0.14376688, 0.072138354, -0.0685428, -0.025107577, -0.08435933, 0.06328209, 0.05162792, -0.10028994, 0.05247204, 0.103098705, -0.048825227, -0.021468088, 0.10211341, 0.13015737, 0.089857794, 0.10791182, -0.09260535, -0.10395896, 0.1372438, -0.16985382, 0.0086868815, 0.08518578, 0.029485978, 0.11834164, 0.0023812144, 0.15200987, 0.11641332, -0.004257433, -0.035348922, -0.17298967, 0.13577963, -0.063965514, -0.123415075, -0.090934135, -0.14969912, 0.07958181, -0.048901692, -0.16518307, -0.10397303, -0.10723436, 0.12832908, -0.08314967, 0.12973513, 0.0019434243, 0.06637259, 0.10242884, -0.093827054, 0.123478904, 0.04317467, -0.025698066, -0.09158492, -0.039629534, 0.09544046, 0.15782182, 0.06133449, -0.11253687, 0.014629602, -0.122198984, -0.11413264, 0.042702794, -0.013741687, -0.13579035, 0.095366135, 0.0581073, 0.15223022, 0.03685303, 0.012153074, -0.15732142, -0.09732072, -0.12117958, -0.026102856, 0.07975185, 0.118051246, 0.02342622, -0.11446917, -0.15790927, 0.099361554, -0.04900372, -0.14153764, 0.11417021, 0.057864547, 0.12586682, -0.15295121, 0.14183344, -0.087877594, -0.15003066, -0.13861345, 0.14617866, -0.10920294, 0.29946378, -0.047062542, 0.13392039, -0.1284963, -0.13078946, -0.083876155, 0.040155485, 0.15264298, 0.06174458, 0.09754808, -0.08852875, 0.083042204, -0.093708836, 0.24734047, -0.10168581, -0.06568228, -0.20077455, -0.12666807, -0.14541686, -0.09530278, 0.060349226, 0.06414957, -0.13506076, -0.1013523, -0.067749344, 0.12142022, 0.12406017, -0.0043803006, 0.021036342, 0.0037430972, -0.04649508, -0.07270531, -0.109986745, 0.118131176, 0.1097476, 0.15458493, -0.0007901937, 0.032973528, -0.1589884, -0.018716648, -0.1625909, -0.1207554, -0.09199524, 0.0104699135, -0.15411548, 0.08346991, 0.11754282, 0.020670012, 0.09503798, 0.10973211, -0.15413687, 0.1653562, 0.14646311, 0.12293629, 0.15227796, -0.013281226, 0.012530044, -0.13256907, -0.14070153, -0.09621155, -0.09925485, 0.07749431, 0.054674104, -0.026379585, -0.073704325, -0.09134623, -0.076904416, 0.09577806, -0.10259776, -0.043788515, -0.14342181, 0.16088833, -0.065803014, -0.10527027, 0.07445693, -0.13943152, 0.14744069, -0.11308225, -0.06793837, 0.12525909, -0.0404485, 0.13870041, 0.07967381, -0.013823107, -0.061267696, -0.09248833, -0.15116176, 0.091904774, 0.13350298, 0.082723096, 0.1114281, -0.072753906, -0.1492705, -0.0760231, 0.10732557, -0.06242907, -0.03155148, 0.024211928, 0.14147814, -0.1595895, -0.050180756, -0.12988913, -0.08549281, 0.04232204, -0.12739222, 0.10288422, -0.0022414476, -0.14762144, -0.12100383, 0.06739263, -0.0952278, 0.12582292, -0.07954137, -0.07349925, -0.034045175, 0.13544072, 0.06649141, 0.08673222, 0.027671799, -0.17042054, -0.017625751, -0.008472982, -0.052762117, 0.047165077, 0.041784532, -0.0074694925, -0.013742089, -0.09387381, 0.21481307, -0.016980754, 0.09916355, 0.061643526, 0.1338677, 0.08579676, -0.14054498, -0.073162444, 0.13522449, 0.13067318, 0.15591227, 0.07571897, 0.050390005, 0.08403917, 0.062039018, 0.14525868, 0.026606128, -0.07382719, -0.15518436, -0.13358101, -0.004900098, 0.0015928, 0.012664631, -0.0023615807, -0.05072999, 0.049936414, 0.018781543, 0.00057537854, -0.055444323, 0.09960993, -0.15103547, 0.03275697, -0.043704353, -0.06370946, -0.0808963, -0.16071773, 0.027949646, -0.023914661, 0.03163435, 0.24569839, 0.042842165, 0.07644204, 0.017661646, -0.318536, 0.30718398, -0.18902126, -0.058806658, 0.28667295, -0.22335973, 0.43665615, -0.076715946, 0.012311175, 0.059072495, -0.047373712, 0.30386963, -0.1370983, 0.16900611, -0.09891416, -0.14508073, 0.08575343, 0.08830358, 0.0841907, -0.056585953, 0.0070349933, -0.10725041, 0.021477522, 0.13444893, 0.06879288, -0.10126658, -0.18056619, 0.036375567, 0.054158162, -0.051575687, 0.09760214, -0.010995939, -0.11729686, -0.12666568, 0.08016671, 0.21981779, -0.053495694, 0.083113275, -0.1186243, -0.15771155, 0.19149415, 0.04102929, -0.021320775, -0.12451613, 0.123596236, 0.019806787, 0.048067883, 0.007716462, -0.006530687, -0.096627995, 0.15828829, 0.13257612, 0.06610906, -0.0169615, 0.12942328, 0.07674408, 0.007348135, -0.050045967, -0.12102159, 0.14446692, 0.029807016, -0.009985879, -0.14685047, -0.08901509, -0.11562312, -0.13273749, 0.13884948, -0.017074289, 0.16840641, -0.10204124, -0.075877614, -0.14690058, -0.024948075, 0.025062555, -0.023751201, -0.12092273, 0.0012367383, 0.066744074, 0.0674341, -0.12213346, 0.13644871, -0.16897687, -0.0071603246, 0.023074944, -0.0023428868, 0.15817344, 0.11228027, 0.03494874, 0.039926436, -0.13500743, 0.07439783, -0.015511756, 0.020745045, -0.15490304, 0.09365043, -0.17719306, -0.1472107, 0.14141653, -0.14017533, -0.12961249, 0.08214146, -0.024032209, 0.019689841, -0.11251173, 0.12652785, -0.013157243, -0.18173862, 0.027711684, -0.24947657, -0.0016338582, -0.21462134, -0.16650294, 0.08567828, 0.0907547, 0.1742953, 0.03912502, 0.0026274137, 0.100757696, 0.032166965, 0.014303774, 0.1615998, -0.036255497, -0.13000168, 0.09127469, -0.15345605, 0.043020695, 0.14387038, 0.091082126, -0.10307842, -0.17702587, -0.07479601, 0.10463905, 0.09788282, -0.10663074, 0.008440188, -0.05037712, -0.039357185, 0.12537749, 0.12684706, 0.07593754, 0.1107938, 0.09200752, -0.102279976, -0.029538022, -0.070622854, -0.06682095, -0.12633626, -0.13838562, -0.038715936, 0.030836923, 0.053392146, 0.11833839, 0.020559154, 0.076514244, 0.031423632, -0.014125573, -0.12027232, 0.13268645, 0.070523046, 0.06153879, -0.192767, 0.11600681, 0.11574254, -0.0019794716, 0.11321731, -0.17973159, -0.106576554, -0.13618837, -0.07790752, 0.051989358, 0.1706985, 0.14086457, 0.07252877, 0.042112768, 0.14738427, -0.04749868, -0.089278385, -0.034233794, -0.09691925, 0.121148534, 0.111766204, -0.055909634, 0.103258714, 0.10473053, 0.065701604, -0.12618363, 0.045642734, -0.15563248, -0.08854997, 0.09558551, -0.075799786, -0.08481955, 0.10584025, -0.0743624, 0.08720977, -0.017510056, 0.12406281, -0.13045572, 0.09694286, 0.10576768, 0.10730739, -0.08530843, -0.16478042, 0.057824135, -0.06508394, 0.007983464, 0.0055359015, -0.037424453, -0.15530536, -0.07143085, -0.10944959, -0.051656485, 0.102537766, 0.045699283, 0.15885954, 0.011848569, -0.08069305, -0.054244958, -0.06379235, -0.15420926, 0.10320069, 0.05180554, 0.16568072, -0.012530759, -0.15016589, 0.0024892092, 0.09366529, 0.13681836, 0.10431747, 0.12891878, 0.027031898, -0.081767045, -0.025000975, 0.16636105, 0.05223937, -0.23838466, 0.25782317, -0.029857365, 0.044240013, -0.11090082, -0.0026247306, 0.17668012, -0.113208055, 0.05061774, 0.22951697, -0.062155742, -0.106473416, -0.0925525, -0.1406794, -0.009730175, -0.28318956, 0.20164256, -0.143796, 0.2658184, 0.041655585, 0.08226638, -0.19606079, 0.096600965, -0.08712411, -0.027314112, -0.07514088, -0.03683369, 0.059885427, 0.030654594, -0.105726644, -0.008423969, 0.13932265, 0.1389366, 0.06787495, -0.15222117, 0.14659901, -0.071167074, -0.157831, 0.062015727, -0.15281713, 0.11424209, 0.12633266, -0.062597, -0.044551812, -0.06863793, 0.060234144, -0.13611707, -0.030413514, -0.13698652, -0.14683105, -0.15901895, -0.019730907, -0.077638365, 0.18294507, -0.13378304, 0.1110616, -0.14798717, -0.1024308, 0.17264819, 0.10775511, 0.00737811, -0.17735595, -0.13478176, -0.11000662, -0.07018212, 0.16740173, 0.05711487, 0.13698417, -0.034232467, -0.16369626, 0.03020601, 0.044371605, 0.0617636, -0.10318959, 0.107884064, 0.07696311, 0.07579465, -0.048169218, 0.112732425, 0.020412162, 0.1199909, 0.0053777248, -0.13233313, 0.14919858, 0.14520092, -0.020469353, -0.07230854, 0.012646362, 0.14735503, -0.028420448, -0.12861574, -0.026563093, -0.035198733, -0.07223769, -0.09566748, 0.1396248, -0.1761012, 0.18818906, -0.1401706, -0.09377214, -0.11296518, 0.1946934, 0.1525365, -0.051101945, 0.14294486, 0.1349764, -0.08502987, -0.15275252, 0.15842584, -0.13449423, 0.13430002, -0.047022097, 0.20913935, -0.109772675, 0.02164033, -0.120273754, 0.0006490504, 0.2057768, 0.02479732, 0.03187017, 0.0673279, 0.003217101, -0.11901017, 0.1421396, -0.15628397, 0.059215978, -0.16545832, 0.11132066, -0.04293319, -0.16244487, -0.16555023, -0.057331763, -0.03461051, 0.037453532, 0.105334565, 0.08475359, -0.08740263, 0.04973106, 0.14857842, 0.08936818, -0.09345786, -0.08631345, 0.004787639, 0.034467027, 0.0345418, 0.13962431, -0.15229723, 0.061789587, -0.12479564, 0.16428603, 0.07087235, -0.017214134, -0.11342045, -0.13720465, 0.16336314, 0.07897468, 0.13188438, -0.053920828, 0.0006635636, 0.11760287, 0.03531842, 0.030614734, -0.019910336, 0.07615876, 0.025841236, 0.07884388, -0.10423832, 0.010075224, -0.1368325, 0.14694147, -0.0004958224, -0.08303663, 0.0036399702, -0.039869323, -0.01718212, 0.012714649, 0.096142426, 0.16587187, 0.025534498, -0.21549872, 0.08959896, -0.09911688, -0.13990769, 0.054302264, 0.19714744, -0.054856583, 0.05315436, 0.09658151, -0.14899907, 0.24639654, -0.15587124, -0.045294844, -0.031362817, -0.16570044, -0.07600971, 0.15022404, 0.023983285, 0.08007133, 0.02465804, -0.011984423, 0.09117593, -0.022576928, -0.039668366, -0.029308364, -0.0020392388, 0.02580969, 0.123774424, -0.15602605, -0.054045163, -0.13201647, 0.1475838, -0.13737965, -0.039307594, 0.16451545, -0.1469967, -0.13301603, -0.05328691, 0.15085272, -0.09480163, 0.15405266, -0.14662938, -0.016993284, 0.06511502, 0.16053729, -0.16661839, 0.16444512, 0.14292647, 0.0010443479, -0.012138128, -0.04040532, 0.13067915, -0.1140517, 0.05276847, -0.07713624, -0.035978794, -0.14498973, 0.058964297, -0.0786479, -0.115809165, 0.004372403, -0.04471179, -0.04324337, -0.12411082, -0.016675875, 0.13898267, 0.017043665, -0.0032226294, 0.123686925, 0.040809706, -0.035347104, -0.0127744675, 0.11386575, -0.054281555, -0.1340307, -0.10757546, -0.059516035, 0.13348965, -0.060091183, -0.11368339, 0.13253494, 0.12882484, 0.12534042, -0.047268473, 0.09206779, -0.009719968, -0.08155954, -0.1257833, 0.059225395, 0.027060911, 0.055226043, 0.045796677, 0.13841502, -0.1343385, 0.031543016, 0.1502086, 0.016145155, 0.06990087, -0.07093632, -0.071287, -0.11979946, 0.05374594, 0.080761194, 0.09909077, 0.04163818, -0.0921303, -0.03336422, 0.09780283, 0.034347486, -0.08867133, -0.036331158, -0.15665613, 0.09504898, 0.08260179, 0.31177807, -0.15411468, -0.013237327, 0.11651023, -0.14062266, 0.04105399, -0.22878988, 0.024232676, 0.074144915, 0.073416084, 0.007983164, -0.06254654, 0.1377816, 0.107657395, 0.29610702, 0.23197033, -0.12689875, -0.026059702, -0.16270861, 0.074022934, -0.0919927, -0.02184856, 0.15136434, -0.16048706, 0.058730125, 0.08433904, -0.08518951, 0.078260705, 0.15661852, 0.12848131, -0.14002883, 0.14511509, 0.106480405, 0.114134386, -0.14284556, -0.018570587, 0.050641537, 0.0677129, 0.13946463, 0.06423493, 0.08650918, 0.034030557, 0.07418207, 0.00905353, 0.3054023, -0.019407114, -0.20695642, -0.02311571, -0.08793627, 0.43487418, -0.3456743, 0.08917315, 0.425396, -0.34035367, 0.3160765, 0.15197529, -0.06733887, -0.1556791, -0.11526004, 0.16198586, -0.26811, 0.28363892, -0.17878386, -0.3073162, -0.024090357, -0.087484166, 0.16886845, 0.16340591, 0.14209647, 0.1590268, -0.12722036, 0.034706406, 0.03628268, 0.11653111, -0.19844149, 0.10184629, -0.069727406, -0.22320648, -0.19612394, 0.16048853, -0.06454198, -0.009760914, 0.10819394, 0.22167215, 0.05780333, 0.18376708, -0.040780727, -0.03590199, 0.3336195, -0.048457943, -0.16429453, 0.083710864, -0.060823046, 0.09723844, 0.13228147, -0.12989712, -0.15804796, -0.0039020777, 0.12282796, -0.15170822, 0.028955266, -0.10809231, -0.13651404, -0.001901105, -0.12345978, -0.0060902387, 0.124598995, 0.06574543, -0.13250002, -0.030702159, -0.06315184, -0.11616083, 0.15445821, 0.07950306, -0.008454423, -0.010211732, -0.13084663, -0.113143615, -0.0975671, 0.06366857, -0.0377277, 0.103544645, -0.059291802, -0.098074675, 0.16117872, 0.058774643, -0.058454473, -0.051515616, 0.06973606, 0.041168354, 0.052035786, 0.122640304, -0.1793165, 0.14769785, -0.11878479, 0.11835238, -0.022461958, 0.05687134, 0.15564717, 0.009230932, -0.05959455, 0.026778055, -0.06530407, 0.12445693, 0.18598403, 0.09092927, -0.109664775, 0.15142871, 0.113977246, -0.12607889, -0.17258474, -0.14546728, -0.11565453, -0.10849187, -0.04753063, 0.13136713, -0.098694965, 0.2349378, -0.110599324, 0.109433584, 0.10441916, -0.06879755, -0.07018236, 0.06542173, -0.024335949, -0.101713896, -0.11474216, -0.06353882, 0.10098602, 0.072318405, 0.12478427, 0.0014166087, 0.107773595, 0.12408849, -0.015484207, 0.07916304, -0.05885882, -0.17686296, 0.046680197, -0.016969897, 0.15252535, -0.13864774, 0.10497981, -0.08819574, -0.045411162, -0.045392632, 0.09636305, 0.07121865, 0.12671898, 0.032581717, -0.12004027, -0.1231868, -0.16496769, 0.15428951, -0.115155555, 0.007542178, 0.047133315, 0.014918913, 0.1330925, 0.076177426, -0.08426634, -0.15115103, 0.015931739, 0.1967729, -0.16646384, 0.22598104, -0.13624811, -0.15799284, 0.086175315, -0.07696347, 0.04958186, 0.09888515, 0.10029456, 0.037030768, -0.09383937, 0.007344286, 0.08445949, 0.2057446, -0.0018659317, -0.09788537, 0.09648688, -0.06446078, -0.015469397, -0.080816075, -0.14112505, -0.19040307, -0.09075041, 0.09648907, -0.07076969, 0.19961634, 0.12414544, 0.069512054, 0.023659075, -0.10534637, -0.03887017, 0.098360375, 0.16169372, 0.11995294, 0.061086133, -0.109654754, -0.16085425, -0.05225718, 0.022762123, 0.115640566, -0.0058267773, 0.099659726, -0.15651183, -0.1564041, -0.11632234, 0.02232866, 0.13133587, 0.1727385, 0.12641083, -0.11236705, 0.11847122, -0.11659991, 0.11852117, 0.0059954673, -0.003739044, -0.08547735, -0.083006784, 0.047631502, -0.054308258, -0.0024481267, 0.16649987, -0.04560423, -0.010890245, -0.13796255, -0.15220162, -0.021643952, 0.019793823, -0.1323208, -0.005644247, -0.10866241, 0.07118802, 0.15498252, -0.16025524, 0.041788578, -0.00501287, 0.09926988, 0.0067107677, -0.058700487, 0.074495375, 0.032507267, 0.10394713, -0.021460572, -0.114219636, -0.14771768, 0.016637277, -0.07940168, 0.28556535, -0.1389941, -0.071341544, 0.21706972, -0.09149927, 0.11896038, 0.06567942, 0.06454663, -0.014793904, 0.024932, 0.18527795, -0.17372955, -0.056615334, 0.121874034, -0.17330486, -0.062105298, -0.1596547, -0.13193183, -0.124979064, -0.028813556, -0.022706822, 0.11431213, 0.09632702, -0.13566189, 0.14190419, 0.06403808, 0.037137747, 0.1443819, -0.00017488003, -0.053420268, -0.11911893, 0.048031643, 0.009221792, 0.13751782, 0.06436999, -0.0033698082, -0.16470286, -0.09351349, 0.08656795, -0.059462152, 0.14083569, -0.05546792, -0.14930995, -0.0082011325, 0.06592064, -0.077866435, 0.054433327, -0.087774865, 0.010373964, 0.16617931, -0.11161994, 0.10367075, -0.19505817, -0.049253095, -0.032444023, -0.048200663, -0.10386219, 0.15683365, -0.0030340399, 0.16744883, 0.018091798, 0.1654268, -0.06401575, 0.0951906, -0.032191038, 0.073112845, -0.07240848, 0.043245435, 0.10019176, 0.1310169, -0.0086873025, -0.15252694, 0.040740296, -0.02364175, -0.017465547, 0.084568456, -0.118885756, -0.010949776, -0.037186146, 0.14667146, -0.06644007, -0.14901046, 0.063559845, -0.014265135, -0.16063122, 0.0866033, 0.051010534, 0.12892516, -0.15111253, -0.05628087, -0.11245878, -0.16770223, 0.024458347, -0.16974445, 0.17250244, 0.083083875, -0.051998384, -0.087068915, 0.121148124, 0.18125731, -0.16396739, 0.026198138, 0.018741617, -0.09989398, 0.13463902, 0.1298299, -0.046305574, -0.04581756, 0.006862679, 0.069236204, 0.13335288, -0.1605407, 0.050607562, 0.13777705, 0.14133604, -0.08857112, -0.118797705, 0.09775667, -0.12650856, 0.07068555, -0.13530278, 0.16381855, 0.08162248, -0.08166282, 0.06506093, -0.13818368, -0.024148658, -0.004469037, 0.13189833, -0.053658962, -0.011329532, -0.16416737, -0.07427697, -0.13835756, 0.06149769, -0.033398584, 0.03692329, -0.09108353, -0.0899837, 0.08021371, -0.14994237, -0.09037157, 0.033827066, -0.07035804, -0.15591936, 0.0018732101, -0.0981954, 0.12452723, 0.1410536, 0.09243126, -0.048758946, -0.12515986, 0.0852638, -0.1323657, 0.10312058, -0.042505622, 0.09016122, 0.1189474, -0.10385704, 0.16412021, -0.14603952, 0.14219134, -0.07362217, 0.0280494, -0.055992704, -0.09270778, 0.0767057, -0.055265248, 0.13415343, 0.09487839, -0.05576711, -0.121089615, 0.26769212, 0.15123633, 0.087474, 0.07800508, 0.18148544, -0.029472848, 0.07358627, -0.22281936, -0.09580532, -0.11761423, -0.053253155, -0.025957897, 0.039277554, -0.13954163, 0.1230367, -0.062223636, 0.16389029, -0.08006339, -0.05367502, 0.13102178, 0.047045752, -0.1656011, 0.14090689, 0.120255426, -0.0960904, -0.030143857, -0.11194837, -0.13691132, 0.11093892, -0.15307316, -0.10876819, 0.12224762, -0.11039746, -0.08505845, 0.1412204, -0.1228385, 0.1563759, 0.06494014, -0.06648044, -0.14059961, 0.00027938187, -0.12984137, -0.092869245, 0.07835448, -0.10132627, 0.10790925, 0.1656671, 0.1495762, -0.0035744905, -0.057593107, 0.10938306, 0.10586138, 0.14478232, 0.14379303, 0.01973021, 0.0945058, 0.04690118, -0.014757395, -0.013014153, 0.10814859, -0.05126202, -0.056119725, -0.13692276, 0.14147492, 0.028662607, -0.042456828, 0.028818965, 0.01554966, -0.056853935, -0.04320264, 0.12876491, 0.07883017, -0.1371207, -0.09789455, -0.16622138, -0.10696463, -0.056661367, 0.14844967, -0.0077738315, 0.10618062, -0.1379933, -0.015841484, -0.04258184, 0.13109727, 0.0032188147, 0.10705824, -0.11974613, -0.14664888, 0.02748029, 0.15686338, 0.105260655, -0.11090013, 0.017996982, 0.1199141, 0.05580087, 0.1319217, -0.11896368, 0.16487809, -0.014547631, -0.13103752, -0.14635536, -0.110119864, -0.069416925, -0.04159248, 0.16106753, -0.1265047, -0.08585572, -0.0966905, -0.19374812, 0.09569767, 0.09453493, -0.033583403, -0.14768443, 0.15164983, 0.027453518, 0.03723794, 0.018153394, -0.13834822, -0.12297214, 0.02073361, -0.15101139, -0.0728431, 0.13506968, 0.039712787, 0.014851585, -0.008482896, -0.11185376, -0.1121553, -0.050720457, -0.030934105, -0.14202715, -0.097637534, -0.14552638, 0.10195406, 0.06890659, -0.033414885, 0.1398247, 0.10782458, 0.052377656, 0.008271053, 0.12321551, 0.13898091, 0.023843363, -0.031026721, -0.14641389, 0.015885517, 0.13514487, -0.11185491, -0.049833417, 0.031120226, -0.10628375, 0.034975767, 0.023591354, 0.11575441, 0.03729832, 0.098515466, -0.22943082, 0.18072349, 0.08864367, 0.11284749, -0.18804732, -0.048757195, -0.24145895, 0.097426556, 0.007359182, -0.05182779, 0.21192081, -0.12522545, 0.20479855, 0.016289875, 0.031270027, -0.16354609, 0.10914855, 0.08044492, -0.0016325858, -0.027740333, -0.3362255, -0.25263992, 0.12206294, -0.10994276, -0.06285796, 0.13266009, -0.0023720453, 0.013363131, -0.014927661, -0.15053247, 0.054239117, 0.15477283, -0.12823826, -0.02360399, 0.18022478, 0.06578308, 0.104441784, 0.1577722, -0.04464686, -0.033626784, 0.11524083, 0.18358904, -0.08339967, 0.12723108, -0.055089727, 0.05568744, 0.22506793, 0.06345117, -0.050915085, -0.10558983, 0.030278444, 0.14268394, -0.101246916, 0.08508761, -0.092386246, 0.0775042, 0.054317355, 0.051031426, 0.12634106, -0.043782353, 0.11489098, -0.0536021, -8.2448125e-05, -0.13519768, -0.14073357, 0.11140801, -0.14173338, 0.16072933, -0.1617568, -0.07787001, 0.01762402, 0.11623807, -0.06895371, 0.18060929, -0.011495831, -0.03202908, 0.03764889, 0.056787353, -0.12305406, -0.021446351, 0.16098559, 0.05881965, 0.010968006, 0.10411358, 0.027519258, -0.025098978, -0.12100309, 0.06286239, -0.05370539, -0.04514583, 0.1340749, 0.10045136, -0.096249215, 0.09069773, 0.16319312, -0.08950651, 0.11744583, 0.022808248, 0.14337091, -0.15093349, -0.050737105, 0.12959357, -0.14483042, -0.04562041, -0.24976717, 0.11900933, 0.20486675, -0.16643253, 0.10677533, 0.03423941, 0.03625422, 0.0011119604, -0.20248616, 0.12365763, -0.26045695, 0.2014309, -0.09001895, 0.008348821, 0.22404937, -0.033315465, 0.09297843, 0.09318152, 0.07117252, 0.14022505, 0.15585943, 0.02411418, -0.19208819, -0.013203572, -0.030454343, -0.09852044, 0.18492243, -0.09328269, -0.016248623, 0.047970843, -0.16232225, -0.17435451, 0.1385228, -0.037564304, 0.18351786, 0.116550684, 0.010241892, -0.00050440215, -0.033687472, -0.14605388, -0.14474896, -0.09458754, 0.058458176, -0.12752067, 0.013664427, -0.09004006, -0.085004844, -0.036901675, -0.10504309, 0.15428223, -0.038869027, -0.20045723, -0.12347604, 0.07356077, -0.02890868, 0.12394349, -0.09470868, 0.23158501, -0.10220131, 0.08733832, -0.11178202, -0.12467625, 0.1065966, -0.05975946, -0.08995056, 0.07316054, -0.09144037, 0.12828937, 0.070078105, 0.11882796, 0.022952817, 0.013190666, 0.026189616, -0.12722802, -0.014629409, 0.006444542, 0.15766476, -0.13066529, 0.050530165, -0.0056157545, -0.093648896, 0.15123771, 0.12196754, 0.0992191, 0.08799413, 0.15423708, 0.09157549, -0.15472242, -0.012512967, -0.10581419, 0.013251379, 0.07423319, 0.13921718, 0.022122115, -0.14747077, -0.0006323606, 0.06808258, 0.0011935681, 0.05171877, -0.111795396, -0.029422998, -0.16328761, -0.13894027, -0.09140396, 0.00977627, 0.13193955, -0.021895135, -0.057941448, -0.13863048, -0.066691026, -0.07642853, -0.045933925, -0.039098665, -0.0671345, 0.08074002, 0.15069659, 0.0038408786, 0.0316066, -0.093013644, 0.0019490272, 0.024419472, 0.097879544, -0.038501456, 0.09837182, -0.118168116, 0.1380089, -0.06610422, -0.11063775, 0.035341933, -0.1612502, -0.10787253, 0.050488517, 0.1640019, 0.16255648, 0.10783793, -0.09163582, -0.064671814, 0.16857614, 0.07906368, 0.008524111, -0.09283262, 0.073236935, -0.10488826, -0.2667815, 0.19209334, -0.1505286, -0.19875048, -0.09438089, -0.36488935, -0.16843173, 0.13668624, 0.009238288, 0.12625657, -0.15465477, 0.017212532, -0.23517919, 0.095829, -0.10571504, 0.17545648, 0.028945804, -0.1486795, 0.046386242, -0.09231087, 0.074853614, 0.15490581, -0.033300325, -0.102685094, 0.16217877, 0.056528255, 0.0699023, -0.034883097, -0.12997779, -0.08568128, -0.14248249, -0.07682817, -0.029531524, 0.11141832, 0.05254142, -0.11093807, 0.03465347, 0.116710916, -0.1368653, 0.05754359, 0.07233925, 0.090129, -0.057403304, -0.14950426, -0.1570304, -0.057704225, -0.15521447, 0.04933923, 0.01911418, -0.0061896876, 0.14887623, -0.07180569, 0.090758026, -0.029045561, 0.062452346, 0.0055395, 0.07541215, 0.060703248, 0.120453544, 0.0405073, 0.072670355, 0.07277977, 0.105270006, 0.024936669, -0.035009503, 0.10792293, 0.099132106, 0.04653378, 0.006722763, -0.111483455, 0.16072966, 0.019498631, -0.13484554, 0.16335179, -0.03786759, -0.015586659, -0.0018254519, 0.028747797, -0.12180829, -0.1665394, 0.108110264, 0.13494138, 0.04992442, 0.0103043765, -0.1528269, 0.04516375, 0.063826084, 0.027413964, -0.14764981, 0.09077878, 0.11236441, 0.119354, 0.056400303, -0.02594233, 0.04007277, 0.10655876, 0.035186466, -0.051665965, 0.15439172, -0.17456499, -0.12100681, 0.17634104, -0.17178905, -0.06424078, -0.16071872, 0.027097203, 0.16456039, -0.10554492, 0.033332445, -0.068952605, 0.13577738, 0.038778253, 0.1001897, 0.07844968, 0.13653414, 0.115221456, 0.11606212, -0.06404889, -0.1336528, 0.019715473, 0.10949542, -0.10145979, 0.07764892, 0.08059935, -0.13287255, -0.0144521445, -0.049691007, 0.11889525, -0.024884224, -0.082392655, -0.050908968, 0.16403235, 0.1559531, 0.07128878, -0.10591261, -0.076233074, 0.10490851, -0.14324062, 0.13725404, -0.11218119, 0.16242115, 0.05777681, -0.1285615, -0.14190122, 0.07793069, -0.095620275, -0.02492471, -0.13315773, 0.065937445, -0.025279805, 0.09944622, -0.0021987706, -0.064033434, 0.060029387, -0.061710045, 0.010022834, -0.0933969, 0.08913578, -0.07332655, 0.012676477, 0.10697906, -0.023048602, -0.13707598, -0.27403757, 0.050679047, 0.055653363, -0.013483879, 0.016060999, 0.054635335, 0.03492465, -0.06813475, -0.07703883, 0.015163812, 0.017406834, 0.07526408, 0.075434096, -0.14069161, 0.11186225, 0.009121018, -0.038371235, 0.0932693, 0.03969458, -0.15745807, -0.0145326955, 0.037755415, 0.015432641, 0.013756588, -0.047623158, -0.061862707, -0.058902383, 0.15251808, 0.14580934, -0.027349874, 0.09180312, -0.10946711, -0.04740691, 0.023687363, -0.13086256, -0.011661932, -0.12130849, -0.13460764, 0.15340687, -0.061911583, 0.06350593, -0.15033221, 0.052392364, -0.047163688, 0.0838881, -0.1351305, -0.1226192, 0.044971183, 0.08305724, -0.11560448, -0.005127907, -0.042356297, -0.057129703, -0.023313165, 0.118387714, 0.1021692, 0.06946075, 0.030280828, -0.12084826, -0.15471134, -0.12975411, 0.07797496, -0.08577057, -0.06867015, 0.0062727183, 0.14069022, -0.07755276, -0.08510697, 0.07130118, -0.15461795, 0.013599038, 0.051014736, -0.102283835, -0.053011894, 0.06476347, -0.12591013, -0.09955069, 0.107929125, -0.09699611, -0.13412043, 0.006622553, -0.107716285, -0.061028086, 0.074331045, -0.01639454, 0.10252459, -0.06959975, 0.079974964, -0.013707563, 0.06257315, -0.03106077, 0.10104044, 0.09416057, 0.028532505, 0.023061082, 0.101543084, 0.15976588, 0.16425432, -0.16150448, -0.13536274, -0.10455243, 0.10741548, 0.11772223, 0.083924904, 0.09914942, -0.12807104, -0.111635685, 0.08491327, 0.048751995, 0.13222258, 0.0649029, 0.106264964, 0.09691648, -0.06391077, 0.077988505, -0.12262627, 0.0065755844, 0.0855159, 0.028529454, 0.0068501, -0.124070495, -0.10517625, 0.14581841, -0.12479172, 0.02132712, 0.07627025, 0.051498156, 0.10357191, -0.032558374, 0.2511124, -0.13021035, -0.021120375, -0.15388292, -0.028718138, -0.09435626, -0.015729947, 0.04157634, -0.15157211, 0.020198416, 0.07297587, -0.0042056674, -0.12603363, 0.082222655, 0.11988415, -0.15131685, 0.07562049, -0.043170452, 0.06831741, 0.014301181, -0.018830538, -0.089679286, 0.117921904, -0.06894188, -0.12873308, 0.09745051, 0.01388514, 0.03702478, 0.1363777, 0.13641728, -0.060681306, -0.0015394241, 0.08431603, 0.11117406, 0.1132486, -0.0589813, 0.011985257, -0.12919345, 0.04063602, -0.0030088676, 0.028408004, -0.16357851, -0.19053635, 0.10867727, 0.021525683, 0.12227892, -0.12414154, 0.04140408, 0.12676811, -0.2546877, -0.07952639, 0.013431311, 0.030510953, -0.07242789, -0.11667138, -0.07587349, -0.089213006, -0.16701944, -0.16202685, 0.017573738, 0.07565315, -0.104938276, 0.17019331, -0.04293697, -0.026459964, 0.0064331493, -0.111223295, -0.11855918, 0.09026074, -0.038770825, -0.060737774, -0.055670816, -0.12821154, 0.04130218, 0.10027738, -0.103526875, -0.008269226, 0.0020531344, 0.14617725, -0.014219215, -0.0034617945, 0.053555567, -0.18924643, 0.06982441, -0.14016163, 0.10482986, 0.1547455, 0.15730305, 0.055631205, -0.09596066, -0.14367652, -0.01283972, 0.009854361, -0.12036383, 0.14000107, -0.13056013, -0.08669722, 0.07372968, 0.09880476, 0.109834954, 0.06908162, 0.09739716, 0.11714427, -0.04473953, -0.12009537, 0.093272105, 0.024514511, -0.12922828, 0.14584129, 0.13696717, -0.105649866, -0.025373667, 0.13673429, -0.12713228, -0.09126316, 0.10269709, 0.122684054, 0.047067314, -0.1534102, -0.08788406, -0.0026606095, -0.180831, -0.16600294, -0.056502424, -0.12386892, 0.035687275, 0.040380377, -0.042920914, -0.027154922, 0.13245401, -0.042181466, -0.04922855, 0.10813232, -0.05946775, 0.07058016, -0.059728377, 0.15257697, 0.17636663, 0.09952338, 0.049990475, 0.015434771, 0.09160405, 0.16223289, -0.098846614, 0.108112775, 0.12901165, 0.037969876, 0.07343077, -0.11300203, 0.24822824, 0.061737582, -0.022783594, -0.22389184, -0.06582325, -0.025996517, -0.19060197, -0.08345982, 0.033062782, 0.055492707, 0.035582907, -0.2698792, 0.065265946, 0.12557825, 0.08356871, -0.06727658, -0.09032934, 0.03652978, 0.077272646, -0.1489846, -0.31953898, -0.106298015, 0.11073881, -0.017952587, -0.14712092, 0.08670534, -0.22194414, -0.061287474, 0.03635905, -0.02818509, -0.040835414, 0.1455927, 0.11330296, 0.018635506, 0.040812824, 0.05364985, 0.043434914, -0.18029198, -0.16121444, 0.11856814, -0.12431714, 0.123275116, -0.088319, 0.05437935, 0.0058832, 0.0136794355, 0.08763993, -0.008215144, -0.05140079, -0.078120545, 0.10044232, -0.11702549, 0.016666632, 0.012018019, 0.037065435, -0.0070547312, 0.0298181, -0.046592258, 0.17198297, -0.1412501, -0.101903096, -0.05939997, 0.020778358, -0.010598136, -0.033329844, 0.045370862, 0.12247453, -0.0488252, -0.16216616, -0.12094901, -0.12528722, 0.075794615, -0.14661367, -0.12150827, -0.18215974, 0.20478204, -0.0037967144, -0.09497686, -0.007492127, -0.15991668, -0.08450898, -0.10865581, 0.11049406, 0.055947, -0.083682224, 0.08453856, 0.14825562, 0.005543351, 0.07961374, -0.07493369, 0.1478382, 0.08339953, 0.028874442, 0.03167589, 0.029923188, 0.12914754, -0.054627977, 0.16089317, -0.02703503, 0.12660934, -0.16094866, -0.016935172, -0.1038611, 0.1564873, -0.13388829, -0.0039318353, 0.16063382, -0.119701825, -0.04419832, -0.049950562, 0.050482318, 0.023944333, 0.06365259, 0.14370291, -0.11342542, -0.097961865, -0.10441518, -0.049344704, -0.07884189, -0.06488669, -0.113740645, 0.16034742, 0.024430156, -0.08270292, 0.002534628, -0.0024827272, -0.01494281, 0.16038437, -0.12118871, -0.09937288, 0.07500887, 0.034334358, -0.02930141, 0.030049447, 0.027550595, 0.14262745, 0.2210237, -0.015781567, -0.045201898, 0.026223112, -0.03304092, -0.104707964, 0.07917999, 0.11546435, 0.042798683, 0.088511415, 0.08654292, -0.00075789064, 0.025439404, -0.14729965, 0.048529334, -0.0773263, -0.055491373, -0.09573849, -0.07255368, 0.12943842, 0.07524629, -0.011233807, 0.11327545, 0.11749293, -0.09009012, -0.05691409, 0.107306734, -0.108307086, -0.034984708, 0.09413369, 0.08930732, 0.058415532, -0.0058522224, -0.022986218, 0.15612464, 0.035621002, -0.15861349, -0.1369412, 0.051386833, -0.035210133, 0.10841647, -0.09400377, -0.101940304, -0.052770317, 0.07192785, 0.045231767, -0.05506103, 0.025267972, 0.10597884, -0.01421845, -0.07012075, 0.053979166, -0.21572253, 0.12904094, -0.061762195, -0.16494581, -0.20266545, 0.07179521, -0.10499668, -0.08950158, 0.066719756, 0.025023794, -0.08160157, -0.00020503998, 0.12501459, 0.16553049, -0.13947456, 0.05284886, 0.0997739, -0.10439639, 0.013386056, -0.045360208, 0.16507919, 0.07955496, 0.084678784, -0.091122195, 0.10671179, -0.119406864, -0.07854732, -0.14556897, -0.040206954, 0.06738286, 0.024085209, 0.061291814, -0.0784719, -0.065870486, 0.051741123, 0.046965525, 0.05342222, -0.09589193, 0.078434765, 0.012486757, -0.14216553, -0.10722279, -0.10365228, -0.12210197, 0.14952697, -0.117675744, -0.122746244, -0.07547406, 0.06049462, -0.13657144, 0.03977052, -0.12541209, 0.18365991, -0.022208363, 0.09613484, 0.04656827, 0.1039426, -0.12704752, 0.08124335, 0.04030724, -0.07500756, -0.0046928376, -0.098672114, -0.14553949, -0.14687216, 0.14614446, 0.021049857, -0.011264205, -0.008200765, 0.12252243, 0.15354885, 0.03737454, -0.0060471296, -0.06544089, -0.0055398196, -0.06565245, 0.044161364, -0.095810376, 0.024603605, -0.124498606, 0.136248, 0.054978848, 0.047290683, 0.11989395, 0.04081805, -0.15644185, -0.13524759, -0.102126285, -0.1602755, -0.028964356, 0.10148732, 0.061577365, -0.1610698, 0.005656287, -0.104575954, 0.026848674, -0.13887596, 0.0022538453, -0.10150763, 0.00440228, 0.13300161, -0.12247559, 0.059344575, 0.13850005, -0.1492136, -0.10618492, -0.07621332, -0.013041303, 0.0058735367, 0.17376076, -0.11450815, 0.20464657, -0.05026737, 0.09098468, -0.15667498, -0.01634768, -0.022261417, -0.12092805, 0.008094877, -0.00032098586, -0.03718658, 0.017991057, 0.07208516, -0.063414134, 0.17266789, -0.02305404, 0.15856944, -0.12769285, -0.008730054, -0.14845623, -0.046908073, 0.14027472, -0.03504479, -0.06096965, -0.14332688, -0.14824383, -0.15059361, 0.08004488, 0.06678734, 0.008969143, -0.041875083, 0.12721698, 0.008076779, -0.102805756, -0.15526657, -0.108273745, -0.11817089, 0.029941961, 0.02655832, -0.12557627, 0.16109231, 0.11355466, -0.11615002, -0.08376369, 0.103508666, -0.06228169, 0.09523238, 0.15346254, 0.05653715, 0.07796542, 0.14439623, 0.04150991, 0.022652104, 0.112826124, 0.07641232, -0.103135824, 0.075905606, -0.07671865, -0.009513855, -0.049075127, -0.065876484, 0.120994136, -0.045782924, -0.041709065, -0.012920573, 0.0102430135, -0.03680201, -0.061362028, 0.09462805, -0.0468876, 0.16120951, 0.13947137, -0.028493479, -0.0068602115, 0.090266034, 0.12787752, -0.070794545, 0.010454968, 0.019985318, 0.10725476, 0.008715868, 0.14357843, 0.08621664, -0.029028222, 0.1297112, -0.00021870434, 0.11394526, -0.13827392, -0.12870705, 0.07474227, -0.11038093, 0.09064917, -0.0499357, -0.055420876, -0.042289734, 0.1503662, 0.0025111884, -0.071726285, -0.130729, -0.09126286, 0.053074405, -0.088005506, -0.0423915, -0.015483499, -0.15139818, 0.078305915, -0.09456273, 0.010939166, 0.14723672, -0.090045616, -0.085596845, 0.076521635, -0.0090459585, -0.0718116, -0.15918505, 0.096221045, 0.10797472, -0.028590918, 0.064959034, -0.071322076, 0.03173393, 0.08207191, -0.21502781, -0.050216228, 0.2313916, 0.044025045, 0.21856454, -0.14584987, -0.17511149, 0.03514595, -0.2418402, 0.15586269, -0.11179881, -0.14045195, 0.03827507, -0.18323135, 0.028403405, 0.012450377, 0.2281949, 0.017660812, 0.08436985, -0.037971303, 0.07854931, 0.15245654, 0.048071697, -0.15828824, 0.034422442, 0.043449685, 0.094377354, -0.038575724, -0.1197203, 0.018685147, 0.11363597, -0.0064323395, 0.1379446, 0.0014035255, -0.13668498, 0.0696917, -0.061621152, -0.10879719, -0.03823304, 0.08388008, 0.13482727, 0.07856786, 0.16547824, -0.11889319, -0.2706283, 0.028354138, 0.13573283, 0.1576616, -0.056811135, 0.06288845, -0.13362195, -0.0059759133, 0.21924686, -0.06980364, 0.15217231, 0.05606963, 0.025457457, 0.14832582, -0.08320427, 0.06912743, 0.16556509, 0.11151648, 0.04372341, 0.04720616, -0.21706185, -0.20662247, 0.20112653, 0.16600187, 0.11383849, 0.028674476, -0.304806, 0.1886709, 0.18376783, -0.056867737, 0.14029501, -0.094394654, 0.24657278, 0.0040148944, -0.25293505, 0.14281721, 0.12988013, 0.044028595, 0.09676011, 0.04725645, 0.056207463, 0.0531261, 0.17891602, 0.015038954, 0.06818991, 0.038489297, -0.23659176, 0.016715884, 0.037970707, 0.040030196, -0.09721585, -0.16273451, -0.08611874, -0.16601205, -0.16255204, -0.010387495, -0.091382705, -0.09638711, 0.04765837, -0.08251548, 0.10095556, 0.052350685, 0.16435103, -0.020323828, -0.07053181, -0.1241405, -0.16214709, 0.1328047, -0.03637044, 0.09168573, -0.08484014, -0.10757482, -0.11778514, 0.029579675, -0.12123108, 0.111888684, 0.025464742, -0.033207912, -0.040578358, -0.10261542, 0.11765304, -0.16415584, -0.13244575, 0.13507545, -0.08084629, -0.15507935, -0.00029868714, 0.0868154, -0.03253138, -0.12387582, 0.04578622, 0.144889, 0.0054783644, 0.046468258, 0.11774095, -0.09777312, 0.12960985, 0.058551315, -0.2571233, 0.1350635, 0.15502802, -0.13486686, 0.016682018, 0.11538147, -0.10297355, -0.03817852, -0.0070621544, 0.13334535, -0.09415189, -0.13951871, -0.1555126, -0.17304036, 0.010111142, 0.08241737, 0.16206448, 0.09917288, 0.09581815, 0.0034412288, -0.07440923, 0.1016766, -0.08557501, 0.06034663, 0.17797048, -0.24723706, -0.047427908, 0.071063, -0.1512092, -0.022587728, -0.06799057, 0.12068944, 0.008035575, -0.11830328, -0.13605191, 0.091694, 0.13733813, -0.0926777, -0.12602423, 0.18612948, 0.04408276, -0.02903431, -0.11027923, -0.055841636, 0.24004678, 0.029606894, -0.06482859, -0.14243005, 0.1638583, -0.08716155, -0.18042545, -0.121601366, -0.1044699, -0.10652754, -0.2831557, -0.15635061, 0.1792375, -0.027707662, 0.023318011, 0.01931381, 0.09452802, -0.037546895, -0.06761622, 0.10017256, -0.094163164, 0.21008958, -0.12544474, -0.042667374, 0.13179967, -0.10716164, 0.12790056, -0.1546643, -0.004269962, -0.2248109, -0.034725804, -0.08511524, -0.026480021, 0.0070528877, -0.076725736, 0.03165555, 0.0038115464, -0.11045102, -0.081095025, -0.015405769, -0.11437597, -0.023077123, -0.13476613, 0.1418024, -0.0021940328, -0.032940112, 0.13791353, 0.1775992, -0.02323522, -0.08925557, -0.009417608, -0.016372295, -0.045493852, -0.040588625, 0.010904983, -0.018968254, 0.0597, -0.12216294, 0.17716974, 0.11576004, -0.14666355, -0.1407532, -0.05051188, -0.1414065, -0.04514899, 0.14393814, -0.08796059, -0.11993974, -0.051648222, -0.17742838, 0.041822374, -0.08184386, 0.10402686, 0.11170153, -0.0765239, 0.1059642, -0.11287101, 0.060551003, 0.12740748, -0.1366239, 0.02633901, -0.1436772, 0.13042335, -0.087558195, 0.15109415, 0.07486577, 0.14703815, -0.069187365, 0.080300376, -0.052105032, 0.043755606, -0.14330594, -0.13700783, 0.010901138, 0.0556031, -0.074714504, 0.078958705, 0.08429961, 0.06048306, 0.07944227, 0.08121617, 0.10520417, 0.07796628, 0.08440773, 0.049787655, 0.028407939, 0.038487215, -0.017418623, -0.16828267, 0.06309287, -0.044955064, -0.15883908, -0.12439577, -0.040336728, -0.029449528, 0.09354454, 0.10121819, -0.047444608, 0.08701084, -0.03894918, -0.16388208, -0.15299964, -0.031828567, -0.14460143, -0.030636594, -0.14027274, -0.02804105, -0.14792514, -0.123505875, 0.019572094, 0.13801877, 0.14136867, 0.07255022, 0.039604187, 0.15706857, 0.08204205, 0.11117308, 0.07819903, -0.1150777, -0.11050904, 0.01809387, -0.09595724, 0.09481491, 0.018892214, -0.019673303, -0.07156372, -0.14699414, 0.0736907, 0.13022052, -0.08629674, -0.08483814, -0.052755058, -0.14685443, -0.09793901, -0.004153689, -0.08114704, 0.06476232, 0.16022922, -0.029800154, -0.020423535, -0.13153109, -0.11054192, 0.048247654, 0.1358703, 0.1810104, 0.06641429, 0.09952376, 0.041809972, -0.027359653, -0.12225132, 0.15791775, -0.1371224, 0.0546571, 0.16554828, -0.13747773, -0.15343885, -0.089632116, -0.031436324, 0.089579895, 0.12685032, 0.12449889, -0.0080846995, -0.0652926, 0.07425709, 0.093076006, 0.15254216, 0.13859768, -0.14860134, 0.15059154, 0.13760443, -0.036350563, 0.13112481, -0.040327594, 0.12360771, -0.08570858, 0.057898253, 0.06437281, 0.020677632, 0.17920394, -0.07339392, -0.15091017, -0.06474394, 0.0006182377, 0.08170219, -0.15366332, -0.0070514376, 0.24102876, 0.075557746, 0.12704633, -0.053048152, 0.19854727, 0.06498028, 0.028933827, -0.096607395, -0.031656295, 0.071576245, -0.016227433, -0.06851618, 0.11978726, 0.1271391, -0.13082373, 0.0867597, -0.16277799, -0.030735448, 0.03447251, -0.13887171, 0.098919824, 0.053549692, 0.1626413, -0.15004115, -0.09639065, -0.044482395, 0.16448192, -0.10757606, 0.058387637, -0.0015913993, -0.014203593, -0.0902127, 0.05642493, 0.02422364, -0.07342553, -0.08263155, -0.105320856, -0.10127139, 0.1219324, 0.13740982, -0.032688305, -0.010696933, 0.033643126, 0.15811755, 0.13871567, 0.08568086, 0.020946339, -0.07714292, 0.066879466, 0.08849241, -0.14365308, -0.014253899, -0.14816348, 0.13451625, 0.033426717, 0.032948688, -0.055014968, 0.042587683, 0.13612057, 0.091272876, -0.058070865, 0.30516618, -0.24715178, 0.37294954, 0.03766864, -0.07135314, -0.027738288, 0.04178753, -0.023514027, 0.126682, -0.15045647, -0.1954784, 0.3015779, -0.0056275306, -0.034172606, -0.12506542, 0.33045453, 0.16654812, 0.23992276, -0.1431909, -0.012475611, -0.269984, -0.13203718, 0.039291784, 0.10209985, 0.086994246, -0.100977585, 0.005352333, 0.09303276, 0.027411386, 0.091613844, -0.1570431, -0.12713015, -0.159201, 0.14583881, -0.02042143, 0.027956963, 0.12630539, -0.14428632, 0.009615019, -0.122318864, 0.052087113, 0.1291266, -0.042520523, -0.050927877, 0.08154087, 0.020887375, 0.046233535, 0.08816023, -0.07916272, 0.034200266, 0.057846665, 0.04106486, 0.042317346, -0.0938282, -0.0718898, -0.10846798, 0.10367186, -0.13046083, 0.052917197, -0.10708718, -0.07333498, -0.011522248, -0.123123884, -0.06943767, -0.076122366, 0.15866499, -0.13784659, 0.05286412, -0.008966282, 0.129602, 0.0457211, -0.0019462556, -0.12287104, 0.0775754, 0.056669906, -0.16563237, 0.0050246716, 0.014927432, -0.08368536, -0.043327533, -0.100386664, -0.022770405, 0.06948404, -0.12143421, -0.010738537, 0.031144425, -0.06460445, 0.0018465966, -0.10383972, -0.00014448166, -0.06666144, -0.090134025, -0.0058327913, -0.113403045, 0.07715778, 0.05600615, -0.10284662, -0.0665501, -0.13858764, 0.055772588, 0.030809715, 0.11302234, 0.030330062, 0.08289182, -0.046409413, 0.15980674, 0.016902283, 0.033580706, 0.110336736, 0.12522797, 0.0031196624, 0.0060510635, 0.049116015, -0.06492969, -0.08455082, 0.0016587973, 0.08265348, 0.07462752, -0.028520703, 0.07030871, -0.15820077, 0.015266182, 0.12981302, -0.09571177, 0.08070093, 0.16017045, -0.2507602, 0.016467458, -0.11106734, -0.15613532, 0.22783771, -0.20162642, 0.055709984, -0.026039535, 0.13318835, 0.16659111, -0.25516814, 0.17846763, -0.23618591, 0.2514739, -0.034566633, -0.14974675, -0.09287691, -0.01460059, -0.024993375, 0.014248803, -0.07938449, 0.03663735, 0.13106366, -0.13619757, -0.02974324, -0.09760921, -0.1405245, 0.106724516, 0.045632318, -0.1296444, 0.10038857, 0.027709842, 0.06588185, -0.030593678, 0.08022618, -0.16073117, 0.031912565, 0.11275174, -0.056623504, 0.15089326, -0.025434092, -0.18082725, 0.216121, -0.0050919103, 0.23971975, 0.15127365, -0.008000143, -0.25730747, -0.0016471965, 0.22604498, 0.08145344, 0.045838963, -0.14614913, -0.08934992, -0.057610355, 0.03733182, 0.07318926, 0.19714558, -0.16052057, 0.124734975, -0.0896449, -0.27130792, -0.08498819, 0.12855795, 0.06217277, -0.077023275, -0.08728831, -0.10078434, 0.002803758, -0.03936095, -0.09383608, -0.028854616, -0.033833392, 0.11872983, -0.06094134, -0.18165696, -0.048879486, 0.12512253, -0.008321166, 0.018927425, -0.17584759, -0.013051423, 0.08077185, 0.13246347, 0.04400578, -0.05078542, 0.11981552, -0.2650308, -0.03997326, -0.042736255, -0.040029645, -0.072284065, -0.15571627, 0.09933068, -0.05056779, -0.025170207, 0.08097112, 0.026517794, 0.09124164, 0.05414696, 0.16542943, 0.026983544, -0.14585495, -0.1539216, 0.07910228, -0.07779567, -0.1019487, -0.06526514, 0.011173889, -0.06547515, 0.0709362, 0.07862787, -0.12274512, -0.116298296, -0.017922627, -0.07846205, -0.14918137, 0.17323205, -0.0369922, 0.16785355, -0.019339245, -0.13061774, -0.09812574, 0.10656064, 0.09319987, 0.06761516, 0.07572676, -0.065229416, -0.15078537, 0.038393594, -0.11674172, 0.05903506, 0.09823137, 0.17819126, 0.17791334, 0.058013905, 0.07255466, -0.024877893, 0.03907321, -0.002604986, 0.14797758, 0.13445719, 0.016839543, 0.029475238, -0.06769588, 0.0063899374, -0.046724677, -0.16296759, 0.0023008403, 0.13027789, 0.09381647, 0.09477258, -0.15180185, 0.26795048, -0.060729247, 0.11192691, -0.237431, 0.10714738, 0.16941515, -0.09244059, -0.0837303, 0.28935742, -0.21482722, 0.029198185, -0.039013535, 0.03414876, 0.10112149, 0.2995332, 0.1555673, 0.006136259, -0.09709259, 0.05667076, 0.11845583, 0.044101622, -0.10608736, 0.14998429, -0.066912346, -0.17289542, -0.07996936, -0.2922128, 0.04754029, 0.11220954, 0.30426982, 0.13945164, 0.122087315, -0.1326884, -0.08288009, -0.113553315, -0.100612506, 0.13172129, -0.04182485, 0.06632733, -0.10121874, 0.103319846, -0.08946967, -0.059725266, 0.11566484, -0.07688995, -0.1302254, -0.08556579, 0.055569913, 0.078810945, -0.05685685, 0.05912614, -0.23317006, -0.10197222, 0.013391985, -0.052515965, -0.12947707, 0.031329464, 0.07623825, 0.10118772, 0.092497855, 0.17158854, 0.06837748, 0.17960136, 0.17006648, 0.0703713, -0.08185601, 0.04963006, 0.056062672, -0.013624863, -0.09804607, -0.003907585, 0.0804296, 0.101208396, -0.013104723, -0.018160833, 0.09401615, 0.17282747, 0.07661573, -0.066406146, -0.1374197, 0.15069918, 0.11055876, 0.12162842, 0.15615122, -0.13083534, -0.09936631, -0.08475771, -0.12688689, 0.13598405, 0.15889649, -0.039944798, -0.062265676, -0.008505508, -0.1238424, 0.023798937, -0.023357868, -0.1288755, 0.038825534, 0.037027396, 0.15380532, 0.070514284, -0.06819084, -0.10496732, -0.04285892, 0.04939036, 0.13583104, -0.14533901, 0.011074141, 0.03501828, 0.16215004, 0.0023382157, -0.057528183, 0.07905264, -0.15979981, 0.038130835, -0.16479425, 0.14975603, 0.072985366, -0.04631102, -0.098871276, 0.11628334, -0.069065854, 0.133563, -0.1616873, 0.077853605, 0.088631704, -0.0588487, 0.09420784, -0.026637767, 0.16835918, 0.11678936, 0.2226061, -0.07376059, 0.07346257, 0.022041425, 0.05283199, 0.3220383, 0.02346532, -0.15224701, 0.19266234, -0.030042028, 0.018639587, 0.045296136, 0.028092578, 0.07375639, -0.018396135, 0.18436258, -0.32957417, 0.061099265, 0.07866858, -0.021631919, 0.11059241, -0.097592995, -0.010161638, 0.032919362, 0.06640971, -0.12887704, -0.008300349, 0.11991055, 0.09494306, -0.09095597, 0.13961674, -0.025487825, 0.064578965, 0.07697122, -0.15558831, 0.0076806545, -0.009970114, 0.11853512, -0.024475694, -0.0558275, 0.037625715, -0.050458036, -0.16066425, -0.06714547, -0.062918626, -0.08070382, -0.038294945, -0.15231176, 0.109347574, -0.05629218, 0.01140623, 0.123265974, -0.13370001, -0.053871825, -0.0037785023, 0.052322656, 0.16989486, -0.19238594, 0.05343376, 0.021449333, -0.115287445, 0.10161785, -0.10648397, -0.045071065, 0.054054327, -0.07502081, 0.14660455, 0.09762673, -0.0696836, -0.13212669, -0.157801, 0.00012655556, 0.01950498, 0.018420577, -0.092038475, 0.1083007, -0.0028758794, 0.16188319, -0.15977935, -0.107045814, 0.14922996, -0.15942638, 0.1293296, 0.16157572, 0.07252963, -0.11177838, -0.16060834, 0.10915698, -0.13652115, 0.04364164, 0.075316146, 0.024703786, -0.02678354, -0.091522895, 0.124087125, -0.08846144, 0.027492274, -0.115574054, 0.015524041, 0.03293056, 0.108840324, 0.21671042, -0.13313887, -0.15957792, -0.07892775, -0.13993934, -0.021810926, 0.07052124, -0.06925297, 0.15152653, -0.09821137, 0.17492433, -0.08077543, 0.18956353, 0.089355946, -0.09523483, 0.038934276, -0.06492444, 0.14664383, -0.09754121, 0.1399277, 0.0951616, 0.042669818, -0.05426272, -0.12827091, -0.072447225, -0.088378474, 0.1409127, 0.0968156, 0.008181095, 0.0958121, 0.15973653, 0.107567, -0.044104576, -0.11049692, 0.010350227, -0.14874423, 0.13450937, -0.07283287, -0.09135012, 0.05692689, 0.07737839, -0.08446412, 0.01848121, 0.09269549, 0.06951122, -0.13879427, -0.09098177, 0.09181096, -0.015748933, 0.064031675, 0.13787855, -0.069793984, -0.07097753, -0.06105435, 0.049948335, 0.038689017, 0.12449701, 0.113361135, -0.1227663, 0.048043057, -0.03067398, 0.09065588, -0.011637732, 0.14033248, -0.1945372, 0.044234034, 0.17535901, 0.28200367, -0.104056746, -0.0226577, 0.06887516, -0.27085033, 0.08718114, 0.08097267, -0.10823857, 0.15265536, -0.31306803, 0.022425527, -0.12609111, -0.013607231, 0.17873427, -0.022717448, 0.36347917, -0.03759072, -0.18008773, -0.17651373, -0.12612246, 0.08427863, 0.058059976, -0.13890538, 0.03400279, -0.109336324, 0.07926512, 0.02643025, -0.049625456, -0.031489804, -0.101049334, 0.16396038, -0.004358941, -0.117884606, 0.11358942, 0.1203372, -0.06606873, -0.15052335, 0.046649054, -0.1534096, -0.1591402, -0.055744447, 0.101008356, 0.07154223, 0.019702082, -0.08275485, -0.15723872, 0.1173989, 0.10737984, -0.09379093, -0.031374976, 0.16492634, -0.06263252, -0.06649327, 0.03608246, -0.05095017, -0.042731963, -0.044760153, -0.11214511, 0.08304508, 0.16278999, -0.07705693, 0.09839864, -0.036616087, 0.06153989, -0.03704095, 0.07236819, 0.107021764, 0.08331525, 0.14557783, 0.0668354, 0.058369234, 0.12567942, 0.12668304, 0.045359924, -0.07848787, 0.09001891, 0.072980925, 0.06025052, -0.10842419, 0.119221464, 0.05614519, 0.041336298, -0.07975932, 0.09980489, -0.07454511, 0.068368316, 0.016514257, 0.028605625, -0.00087971985, -0.036811277, -0.08517885, -0.090613805, 0.0758764, 0.12239362, 0.039465904, 0.030981183, 0.07802789, 0.015243366, 0.012280151, -0.109530374, 0.018719599, -0.10673424, -0.11485474, 0.06598444, -0.12788253, -0.11340909, 0.13671668, 0.09359817, 0.12076776, -0.041350722, -0.124757014, -0.06486122, 0.077642485, -0.16636762, -0.058609128, 0.15864773, 0.11029713, -0.14646728, 0.045894645, -0.17215443, 0.10514226, -0.08675747, -0.026761359, 0.20902641, -0.22738598, 0.2988932, 0.022355989, -0.101838246, 0.319158, -0.17499709, 0.1535545, -0.17907642, 0.07141754, 0.08180026, -0.065691195, 0.23175238, -0.11661678, 0.09019875, 0.18981704, -0.17568216, -0.11064037, -0.054486632, -0.16610388, 0.032910302, -0.07361226, 0.097950175, 0.1097558, -0.122350454, 0.041065738, -0.15079665, -0.010273889, 0.03715749, -0.09467471, -0.1607885, 0.12720741, 0.09013574, 0.11104877, -0.07153146, 0.024441674, -0.11295589, -0.08078945, 0.11456348, -0.081533514, -0.06262362, 0.113614276, -0.043975484, 0.28658408, -0.28122425, 0.34067413, 0.038572393, 0.0021605962, -0.5157549, 0.044589743, 0.18135513, 0.0483042, -0.08568563, -0.24621007, 0.22697966, 0.09178986, -0.093286, -0.15841214, 0.42299628, -0.012181052, 0.36537546, -0.19838841, -0.46424958, -0.28773016, -0.18428615, 0.090642765, -0.10593191, -0.15341766, -0.13562965, -0.014309671, 0.026291244, -0.17483559, 0.042628393, -0.063155055, 0.11756365, -0.04399705, -0.15575308, -0.03710358, 0.05500025, 0.043895796, -0.022167563, 0.012415952, 0.03850747, -0.17823705, 0.009710573, -0.0066679367, 0.17630981, 0.0733709, -0.21087205, 0.10224952, 0.1594847, 0.13018425, 0.047963858, -0.103657804, 0.030609846, -0.09700712, 0.115269795, -0.14613359, 0.06017916, 0.07894893, -0.016186953, 0.114530966, 0.15813507, -0.14084427, -0.003102854, -0.15543258, 0.047658727, -0.12844893, 0.090793565, 0.040896416, -0.13256316, -0.036951467, 0.14248009, 0.006874129, 0.13985907, -0.15654054, -0.083650984, 